{"layerSizes":[784,128,10],"connections":[{"weights":[-0.014839139208490686,-0.007875803543701449,0.010082936448977245,0.008522083103175288,-0.008137349326674305,0.02415529203869787,0.023654127956880799,-0.01644546111783094,-0.031946083273658849,0.001209641223647896,-0.013027506489727706,0.018018995561981119,-0.041893326606330109,0.011395863547405279,0.061584665614289667,0.04496453949836338,-0.014384242004405888,-0.007364333601703075,-0.014323009204569443,0.053810204207393626,-0.008484934276827122,0.0004538617961984042,-0.004852738060759578,-0.012217529764202456,0.006676186856803729,0.00282094270045229,0.01423081869552961,-0.056633415104117009,-0.05569729535777954,-0.01659669930943357,0.028921818833950776,-0.053348104514391297,-0.012605673351613259,0.009871294093681645,-0.008362684403451766,-0.007919618780131597,-0.00234193096388245,0.031836195436179919,-0.03913571141846835,-0.00551729410968306,-0.0047455431359371149,0.02744652399674025,0.02956032401831382,-0.043811006735378969,-0.05028671269652385,-0.018408147055977297,-0.0030406307109190915,0.00869811624330143,-0.031094255774749708,-0.0029877427243740555,0.0026575457191885846,-0.016099958291969166,0.011762499347042545,0.021131745814803639,0.022389408424287946,-0.05589341128556063,-0.008006078074329074,0.03582009994156406,0.018247860229805028,-0.019355351392690735,-0.020921065149808149,-0.021025161215967267,-0.056265053090594919,0.001877741619714252,-0.0009193896814865308,0.0171931455515685,0.05103890709340691,0.005745497170826725,-0.042857769624432818,0.025907142688401338,0.03692010795657979,0.002281540035980586,-0.010532079350145989,0.02518096784891749,0.020478976431028394,-0.039510834209736948,0.00929195704012262,-0.009018031250538404,-0.04056513506868181,0.007237909131754803,0.012908218544272057,-0.046434733656097567,0.011689513984646606,-0.026515009562717,0.014797803843975369,0.00473871952028182,-0.004129292731138136,-0.05378068143321581,-0.023662297686661599,-0.06630992695068328,0.015538866317797837,0.026522508055040505,0.004608418316936119,-0.001376651082794055,-0.014368783837866878,0.048106875525331427,-0.008974737983285922,-0.025351975806714928,-0.012028975602689299,-0.00252656004696796,0.038250963363495069,-0.009570161938277625,0.024136425050339924,-0.0036434358054662889,0.041569296372236167,-0.0033691830199332939,0.025111318520478627,-0.05421387274400516,0.018861701422475446,-0.026488273365316365,-0.01688538345798929,0.04259681660705307,-0.029675174896725267,-0.008849015952346383,-0.02743737989359659,-0.01629594355311861,-0.00015983191940349107,0.026100970382318759,0.015830458791551564,-0.010622986647181364,0.018186608730649237,0.0016913054442648712,-0.03659645944535886,0.013781540245082307,-0.044366148064039118,-0.019214462098480775,-0.022402508404078683,-0.025755267922360188,-0.025626606800763439,-0.04883834004390271,-0.005872768788697376,-0.03797609005031833,-0.020401535339225574,-0.048588098513017877,0.004157224357842071,-0.004849757226669921,0.01311777395800196,-0.036053775699297078,0.061721388733238579,-0.001997647821321854,0.014612360765499294,0.03629841966351497,0.022236962904454744,-0.011145903970570148,-0.05252030974042375,0.02256221369853124,-0.004714257646153932,-0.017238558529473374,0.01475253379068884,-0.011521416986835429,0.029554779417497465,0.016196863033409064,0.004281063507846912,0.018578823780368547,0.022705852512246096,-0.001601124237177909,-0.03171865047462837,-0.0016047577679092426,-0.020960369165963126,-0.009876398286152463,0.0008611757241371124,-0.009627501183923254,0.006807151184096145,0.021593174122107374,0.049026919947510499,0.02669918782536616,0.026648811089037756,0.01710223990185239,0.04217241071155959,-0.006688028916642466,-0.016830320820659034,0.020080635664050027,-0.055119452780325598,-0.04887244770898355,0.011822696717117573,0.012440496663692602,-0.05602686885644768,-0.07979266265009073,-0.016928932453623346,0.003958482949411917,-0.015701302491916669,0.0031992120964881496,-0.020665711259674894,-0.03736643013227346,-0.013311376259900837,-0.020731436254555793,-0.0051055669219187299,0.011419143790001556,-0.006983334585773729,0.040474590762877207,-0.0015184435499825289,0.014365227302729322,0.0037973872553369477,-0.00889416288283069,0.04408518402367844,-0.01911246833804228,-0.023015873307759964,-0.029549682164871899,-0.001297853461497964,-0.014223534320064563,-0.0056944484491663499,-0.031175556939715456,0.02936560800065812,0.018863328463906888,0.013294425226306466,-0.019261388146975576,-0.03968863572060892,-0.029371750926144439,-0.01738530278349213,-0.016702268088392908,-0.004560846827206538,0.014094331201543204,0.005223434056313639,0.022972035806826688,-0.07171282118380376,-0.0379860852334344,-0.020328460542791944,0.019903322036313708,0.03122864788898639,-0.0062305688397502208,0.00015541823530615205,0.035939465937702027,0.022790281569382018,0.009554324308664745,-0.03461644417504457,0.007588581677453045,-0.0003099657223810979,0.012905330933785008,-0.02987936931728007,-0.002095818876309122,-0.022064935215444595,-0.009409606526853455,-0.02515974395406313,0.004118410852908863,0.021174133003005008,0.021468795725159859,-0.02481284017492811,-0.009542107942069663,-0.016051848833668764,-0.029769495535234004,-0.0479692235969927,-0.04342376395907173,-0.005102185225126886,-0.016713779878997943,0.004378792684397718,-0.016665605282195789,-0.060255638362339,0.011581754689095902,-0.007549822185095066,-0.04012564702472045,0.020064768926446549,-0.018586317866311144,-0.05205406381112595,0.02250870137484462,-0.03221537270686828,0.03346235279564711,-0.01600785511408087,-0.009095952736682556,-0.05166099148234875,0.01067489897119483,-0.007540348887979689,-0.0430837151145731,-0.009286290019556557,-0.01687361710596173,0.02261015099319872,0.03727929308445271,-0.009027334978956196,-0.059553596788701038,-0.005173936230837099,-0.05000495691273778,0.007591663755292936,-0.01471024805915382,-0.006577397844917895,-0.02243194904982656,0.010368855047937706,-0.07487933544304709,-0.04084256910678633,0.0731590148188892,0.00026471297253158224,-0.03627785730550524,0.027031407646158094,-0.014307503657577744,-0.0042772834571844328,-0.004802938512618005,-0.037226136517939437,0.030678043976641233,0.020475046783323546,-0.05383926602855003,-0.002150430741030717,-0.03465504688168126,-0.03768330272123665,0.010043762026889466,-0.023132399695731125,-0.038354357230851298,0.03658761257655055,-0.018862232689670107,0.057396332757892489,-0.019020354524553839,0.02446801060898183,-0.029549260001236988,0.016246404590713024,0.025509592030164016,0.014238518855757813,-0.028362494076210288,-0.046043169360216299,0.03892076605595266,-0.02836159656882492,-0.006709590791783063,0.01623681635600421,0.01950591799215182,-0.013317960706567498,-0.01666863267417904,-0.0014643030791058787,0.007348380832774048,-0.012070016813120692,0.04035157592184539,0.03318808997608836,0.005741978883722248,-0.06659736011133852,-0.010328711464997287,0.027715037466197975,-0.04348244199765616,-0.02387099056718657,-0.052601828050419869,-0.028165506364657097,-0.052751079364099177,0.011518141678739045,0.005320619264216504,0.010958285774483214,0.03356945499566127,-0.0479128483520962,0.0036638462211215948,-0.007165796970415118,-0.0169182557992544,-0.01997482261870129,0.011954238313047705,0.009318975207058418,0.001915863062434924,0.024980379190570138,-0.010286462240767644,-0.02589642958930203,0.004827795850711238,-0.010939142620343106,0.01626068907403823,0.022682174967134019,-0.0015455641942298358,-0.03435066597007123,-0.002089920534150859,-0.001999532838447356,-0.04070382034691075,-0.01098297229368563,-0.017220985387149006,-0.04484477500361798,-0.020380486902506099,0.030810785896663113,-0.0455369718050946,0.018481295481256819,-0.043204146332778688,-0.015223999386566986,-0.026621399266814166,-0.004831139874932142,0.043309245574957948,0.009261304801293936,0.013985263582981439,0.034372782866860938,-0.012440005733677628,0.023507721825713269,0.0090912390536801,0.007862711733065435,-0.014412150978676529,0.018178307445328759,-0.0037258125781972457,0.0281625571637976,-0.015722491239175387,0.057927144662471199,-0.021307191787743094,-0.00517868319303429,-0.0023940414609065036,-0.013988273296938494,-0.04428652331506511,0.0006473534859657891,-0.030910501924309814,0.014989826450351832,-0.021392792710741187,-0.050338175170827299,0.004266752247924773,0.0016119795223493654,-0.004716499763392579,-0.015559595954957782,-0.015323059670443309,0.04937530829654818,0.043854072285475987,0.06753510004879067,0.005190376223765873,0.005191928960096911,0.026518576372265538,-0.0021742776290875067,0.0301120477072482,-0.022325285074775146,-0.004406955687687293,-0.0449383804143836,-0.04708123520621217,0.0268155721195802,-0.014669159550939882,-0.005050172644471479,0.050232102696535118,-0.008599332858637284,0.01701618887746464,-0.03240156750352631,-0.04719997818933945,0.01945568382464204,-0.04442110924559183,-0.04115806163505303,-0.05705123284238622,0.0061638209218244318,-0.003915052495461571,0.006587928072786522,-0.024544005440512798,-0.012103502622302087,0.024680876730291996,-0.04565797952395412,0.0141834307493718,0.022021058150793847,0.009977410811196588,-0.010923557834602216,0.03306582891976133,-0.037244236700108169,0.04783142634334746,-0.021083793369442367,0.002863426225457585,-0.012756614983010001,0.013464231329925688,-0.002418255058302563,0.0022606510895416835,-0.013860584271337132,0.025721228182435796,-0.017066132093163559,-0.03696502091186149,-0.05383653872855258,-0.027541206378335814,-0.019674874736674329,-0.0014476183319955794,-0.004805419659962209,-0.007167106204012535,-0.01864760479842349,0.011251526019018049,-0.0206249186122169,0.022465561735393805,0.0009099056681303175,0.042879385962727317,-0.005428750980172298,0.015998325720545327,-0.03527851094509184,0.03747269543455682,-0.03889917850353483,-0.016819113495820806,-0.009439565104298742,-0.03368633764428428,-0.024481252440736173,-0.031118627300482865,0.0023380222719785327,-0.013684322156305835,0.017179833470926166,0.014803818164554667,-0.06166069084080162,-0.0309662047589068,0.013902488139789248,0.004990745048063382,-0.03420939220558764,0.02990139285291535,-0.001566273741029418,-0.022032736766429998,0.006291528844226605,0.015778153370546716,-0.020152722003045105,-0.03892035442147172,-0.04028646177739126,-0.0004580794042808374,0.029605246012261726,0.07397268093991939,0.016153300568028739,0.004474140611301199,-0.0035926424836788914,0.04567549732832113,-0.014662692119292323,0.0033211100840176927,-0.02694134516689707,0.01693303617959146,0.004344895565560862,0.057561091977077438,-0.006577191086528774,-0.018869933824714016,-0.047367497538859808,-0.004665352666864825,-0.0000895679360561976,-0.014985308042020317,0.021694406175627853,-0.04207279906173017,0.0013069937785602998,-0.028822258830387874,-0.0046314491698345098,-0.0322290847420304,0.008910235234200367,0.004351547394040782,0.012002246342397218,-0.01725047668559833,0.01308384998230249,0.056992707605080499,-0.034943449979744658,-0.005804496833374178,-0.0058683311395385739,-0.007686668722156404,0.03078912026146457,-0.0187774018116391,0.032910166758619307,0.011444989994008953,-0.06438347331584411,0.025267128307882748,-0.016817239835965036,-0.03187783045948548,-0.042743842003692768,-0.003061800476881088,-0.00862147891970145,-0.025093046559226938,-0.0035828728141896945,-0.019787278047453093,-0.047360857395477237,-0.04275678717627621,-0.017407977930763899,-0.02221225898228836,-0.04837871612221966,0.02647485339641412,0.0018216338625780518,-0.006175441148046869,0.005181056456043398,0.03494738221040643,-0.0016672000329686435,-0.018817883046756524,-0.003988187997659088,-0.041357971327052597,-0.0029180479188262358,-0.027380347018015097,0.014059932177383045,-0.019447487010765257,-0.055098943464291647,0.0016214456385334324,0.004036167752684834,0.029248513912306107,0.04988006985224406,-0.06461841087714865,-0.061919176285877338,-0.005246351278562508,-0.03612017493082427,0.021436755300625278,0.0103484821655912,-0.03605253386896433,0.007364112383411555,0.02229484118961225,0.008108957759454359,0.037656583569802028,0.027044830591674865,-0.030162393522834647,0.002281135467003312,0.020643789180146006,-0.019331313029113826,-0.03379921031883267,-0.03243108112616652,0.009010484432591037,-0.0009417897970118852,0.011498648080801685,-0.008571451143326496,0.005605208614001465,0.00012072648129534473,-0.024430089061261076,-0.02126099772721939,0.03499236536872745,0.004754044699452546,0.05776362976589534,-0.0035554624691481828,-0.025255017236920024,0.026908799038278688,0.046012902205578378,-0.03801431638071972,0.01445222719988952,-0.020183131412953204,0.014324790525134355,-0.0042719736753230159,-0.011169955421315816,0.04098972979939322,0.013046319811862762,-0.02180301756838302,-0.006230432950253177,-0.02210192378043257,0.012431800482061325,0.0014715213532759753,-0.03426886397315444,-0.04117806361776701,-0.017705261748344235,0.009204489387155606,0.019448955175790856,-0.017994805261965068,0.012993359416552978,0.04477139287712587,-0.014976758775920703,-0.020470757024025476,-0.026570858273102527,-0.04438172803482115,-0.004389578496072908,-0.0341605267211031,0.008496207364954213,-0.03027423789864633,-0.029551744593728659,-0.010878058614794054,-0.01471392567467202,0.006529747694816739,-0.05563923050907828,0.03258687410382241,0.03628281384327892,-0.005987654710134375,-0.02353266784545581,-0.03361768784197314,-0.01260654240154435,0.027469870465764508,0.022997545038793495,0.011188534916076892,0.0012366844364497742,-0.03877337125597459,-0.00666068571383987,0.029440261093767969,-0.017681073949998774,-0.05919082119396269,0.0019743545661252929,-0.018994667987598504,-0.012340346601285512,-0.0535179271949833,-0.007354582877621886,0.004555728723833098,-0.012385701620591669,0.03983489960572252,0.027846284417420397,0.012877789836407385,-0.027025453874061385,0.011068793456277657,0.04549561383320664,0.018324883076919174,-0.0040791851040371889,0.0025662516471300718,0.02929266982224993,-0.0160338080753332,0.013087665886444788,-0.029075701483329769,-0.007492070004314593,-0.006073590906099858,-0.03406513063083527,0.015539225981283347,-0.03309741216266736,-0.00929289368904957,0.012915283093764349,-0.022830513820627939,-0.03891874513542082,0.02751221769956996,0.011105047243224044,-0.007667650840929362,-0.02042411239869064,-0.010280114090114819,0.0010382946238881883,0.00040735167204586646,0.0496486094934235,-0.030257590626991829,0.010603403111517597,-0.03394292260484536,0.003207529220516413,-0.0033665149636620029,0.0069619466523725089,-0.028497396587155504,0.03139978380409374,-0.0010621966946685494,0.08103781349637759,-0.0024262650865702346,-0.011786007612416345,0.016815192879649767,0.04650556840115413,-0.015009810060756073,0.02675015546531623,0.000873344121219978,-0.023789423441099197,0.0010659506330333274,-0.04960078984401311,0.0014903072281379868,-0.07496273471810855,-0.024636909896313717,0.00822602511610782,-0.026806887344696784,-0.011602638275161202,-0.0005104567623104606,-0.006940547014218377,-0.0011262251488236579,-0.03004295222010511,0.01938388950731483,-0.010936570069973504,0.005884869060010325,-0.008474846251323923,0.005523216681482016,0.02396750470810451,-0.016005349682231205,0.0019560922151909646,0.006476313066939993,0.039554493006139,-0.01439972045821835,-0.030896143079323824,0.023574580034143423,-0.012178268302789695,0.013742936647317772,0.02558857189908712,-0.029494143329044276,0.00719059830414744,-0.022838664205283748,-0.03160267454265345,-0.04285610495878495,-0.018665626804433109,0.02896445606682586,-0.021579576986626535,0.04794537346843097,0.0045020718426452559,-0.02807041218709445,0.02159186710680507,0.02462141051945365,0.03340852771510997,0.007737376935514116,0.010726847617864894,0.019813295658026809,0.039292464310613079,0.017061561170681737,-0.020800346143581819,-0.00658226927310936,-0.01378652368653357,0.02469217802321795,-0.053117387158536828,-0.025775196149732846,0.007656959994386141,0.00692353250824895,0.024493482464483963,0.001036900831223269,-0.041858658538110698,-0.01570784968236336,0.01768696555320113,0.017641227899676167,-0.010761696578963799,-0.016941353606852659,0.02767229945654177,-0.03599363446894872,0.0022567488458534094,0.004967625374411363,-0.014541569638328018,-0.002956636795704874,-0.024410377240769854,0.01930511775926545,-0.0017863008670846212,0.01291641748199748,0.04206309658788871,0.017704236050726145,-0.04084745612723023,0.011176362325112585,-0.0024180305672514485,0.011651676668613885,0.004358791932079502,-0.01527009377129191,-0.018307927293814358,-0.007859471068043418,-0.015838132218418525,-0.021337237753221287,-0.02289716572793858,0.041086812315578039,-0.02562909900406539,0.030723157087115418,-0.019251181019883619,-0.032059534328269519,0.005368415252976783,-0.04503540971896295,0.018721458641851004,0.021911623292602966,0.014595705938048938,-0.0016306520640537906,0.0047117468679118618,0.01566146022500175,0.06899784645828938,-0.01638826849683143,-0.041993847032012827,0.014340018032836123,0.01923513736420153,-0.05595000280723771,0.008289817951375742,0.0028409008220514938,-0.03893053414190765,-0.017419813909524827,-0.0073610625308097089,-0.08953970870471219,-0.01601552318804525,-0.05685981578078941,-0.06749920636410677,-0.022246335189959077,0.0056298140703105359,0.005708293890129165,0.00628360322327379,-0.026640633030449398,0.006064981330152747,-0.06145846475275783,-0.043850257863848638,0.012683984553194333,0.006755423556952106,-0.037623334660551847,-0.020246052147969867,0.008919209997755277,0.0008874782859784881,-0.023293703973627793,0.031573144608986008,0.0035587461114660096,0.010712282757458907,-0.04950940338038035,-0.06562998080401145,-0.017739451405159983,0.03827105065484309,0.030930585653113214,-0.00914361834471286,0.012378434287089593,0.002779111355500455,-0.05692049625917967,-0.01799112251397835,-0.039545927460209049,-0.03753799002678757,-0.013643359366417562,-0.020373021152337389,-0.05712772053379319,-0.019863347043125508,-0.05834185838669307,-0.0359906623788097,-0.012823574869486742,0.031914791980162757,-0.036206907536817527,-0.040140641543227887,0.0055645511571292848,0.03147294373695528,0.051477731304238039,0.08467094797700212,0.06999068776043291,0.029288764043374894,-0.022393735858785688,0.03653973762957702,0.07680273660748381,0.037632577043285538,0.0388758146888331,0.012242222742813586,0.05311443258772406,-0.04739124556431284,-0.04250996867516602,-0.011581831799316857,-0.026451075387169798,-0.018706664192075084,-0.04391426096604503,-0.0787865513404138,0.004530709211355319,0.0023899896017005679,0.01984788585131091,0.03476611027142607,0.012963798395214844,-0.015218544423302155,-0.033249389090616487,-0.040039421743906389,0.03673788856433789,-0.014520169514675708,0.006798225994148024,0.027588680671807018,-0.010703114278679024,-0.004293914538558844,-0.010969818028530124,0.013566505388183851,0.047456576681513987,-0.03084937908095326,-0.03794636111420644,0.0370282009897174,0.03739973101445933,-0.014997813957515724,0.062242275600753727,-0.027741072904752939,-0.029639746261359295,0.006789134463032645,-0.013843486657961769,-0.035940897637409287,-0.028925102943795648,0.011617600870002472,-0.04845240348578481,-0.01022103999671113,0.0003877026801373081,0.02191541614160944,-0.034163624291130217,-0.02961222090641744,0.03762475667596112,0.015677362063298025,0.01627305702772372,-0.013801108898930406,-0.020534887190396514,-0.014815203068271502,0.02066369252127157,0.02378435383960665,-0.026528366759506776,-0.04323034939292764,-0.036020875251773849,-0.02645516893359144,-0.07779908050760705,-0.01058076436153357,0.0704214239433215,0.06622356191124696,0.022427206729568516,0.001208820825035648,0.03994626661651407,0.028437402998534677,0.015335422047430037,-0.04420206507676264,-0.020747781588982728,-0.0511599797920795,-0.03775638225087819,0.016790148114125486,-0.06908906195655088,-0.032568619433288249,-0.017457024898021268,-0.011004862127145451,-0.029278649419703409,-0.026629594342455998,-0.008123710834161576,0.0000721554676938169,0.03601077595688013,0.00045944667952340534,-0.009648883958715745,-0.04383727309501729,-0.16882745173058029,-0.08170093018577753,-0.06817452078665096,-0.02802102583018342,0.06918359400586702,0.04293965362559155,0.1009388267774966,0.06940991607597379,0.15399677080277786,0.0020743957515918446,-0.03666746429400409,-0.004661285861083034,-0.06856783247592907,-0.05565328975844699,0.021233917687298714,-0.008643936418252441,-0.052293931694287486,-0.05692648593054485,-0.012518211825770965,-0.012372116735376936,-0.020586659931053899,-0.03817570308874105,-0.05964454749181826,0.01340886885707615,0.027444308354143109,0.053604987351192,0.0034806866797381858,-0.02492570631375786,-0.06180483995896603,-0.08210138116380714,-0.1377552594081012,-0.10453598837712891,-0.022691642982470663,0.02177920518657342,0.09914467775705921,0.07218081083570859,0.06546404939153196,-0.024929412849337374,-0.0258244967850034,-0.04711202084930453,-0.05901572165279132,-0.1372930606274974,-0.1213939943886904,-0.04107773003919408,-0.18087350745768303,-0.034679164532603227,0.04581551789100904,0.04075123880461699,0.06776936897955222,0.046458409539433077,0.08127418120681282,0.1093622711861137,0.13513307965730268,0.12713986990310664,0.0905953891920718,0.02737266601463398,0.00946507685537999,-0.033819171676158169,-0.062221121737598927,-0.08087048845325873,-0.017595164153898458,0.03873326372239901,0.04935418662282829,0.08897241601533179,0.1484431271236822,0.015197094250500632,-0.08110614579708112,-0.033387074155868428,-0.08000034520134646,-0.08141283916804886,-0.1026614188938697,-0.05729170965230669,-0.06240696947584809,0.005313199908989541,0.06940563546159463,0.09511906609409711,-0.060712717033036569,0.02311439874992299,0.04741579510622573,0.13232652232087065,0.04547834201928545,0.04422821756608319,0.04159456689156332,0.01684231142813344,-0.026324012373465476,0.0013081971309543833,-0.10076890845004039,-0.02721075373256243,-0.02449209482514408,-0.06818335405573532,-0.02191135439728521,0.0067443821017750559,0.04996854427582396,-0.05316708046833359,-0.05632800434958053,-0.036338793627210468,-0.0031122379285856754,-0.06528255754451869,-0.04712316904872994,-0.07886924055092945,-0.1203374688826331,0.030503196020632108,0.05217364504176253,0.007931362249604335,-0.04775886419959329,-0.0045535107081133559,0.010856872086874942,0.11833718423341204,0.04986135957114452,0.0462629251916832,0.023053503074113449,-0.02652310262475377,-0.04836398898415462,-0.07774169192722909,-0.12345489815254782,-0.07127809151418833,-0.0825529781365104,-0.1023339683698657,-0.11240027414304393,0.007882234638765034,-0.026307446336826139,-0.059859642901859019,-0.015306496059278962,0.0021706914951652317,0.0032429003967735508,-0.037966410162413578,0.0003259353944282741,-0.018803366887689106,0.026398384359527448,0.02151779961909183,0.09836600788907776,0.09081829574733975,-0.11205788957560939,-0.07600332911013992,-0.03956275591212651,0.0917093164537778,0.13393576604790936,0.03602923330308844,-0.004367573202004412,-0.00097533237130763,-0.08741140910270363,-0.08330770243798014,-0.03265655648457867,-0.15246018781677743,-0.09055744244212394,-0.05434610983663032,-0.11156420389345755,-0.04404055929139523,-0.03007256346267773,-0.014454252911992977,-0.0021079203034716986,0.007060645029104377,0.022252845796338646,0.04147234880604879,-0.0077695144157150538,0.008476561787266975,-0.09255982748137794,-0.03193612211005754,0.08964532911913334,0.001745121121913222,-0.11183423410268245,-0.08825854186538625,-0.02974353451931982,0.05794337211272475,0.14703666485687026,0.1769195839608493,0.0515256346414033,0.017348004690453269,-0.019368578585695199,-0.041127062603217207,-0.0474541002508528,-0.023074826069420616,0.012158687508509622,-0.08185744650861121,-0.03687206541195887,0.016409148370404134,-0.013933606976897297,-0.029116528189287728,-0.016194936956331883,-0.035738735197906577,-0.02972731830711181,0.07237515822419985,0.06648633675050587,0.042365796373427817,-0.013382905649306609,-0.10299485929641117,0.04766111497636299,-0.011495367109932513,-0.11474784038539363,-0.0878946363842844,-0.060545735019613539,0.015053102292954946,0.029156138005158276,0.1633770310944842,0.1551188229833087,0.1297407715724977,-0.04482510585196266,-0.08213491467977197,-0.09284911944694764,-0.09289847012373195,-0.033940739068214677,-0.06501645024955104,0.006215180100624077,0.01603768060053574,-0.003932390920186502,-0.020830812955183944,0.11670962058729037,0.11905077503819592,0.08691012174445399,0.11315235538698854,0.07953312177748255,0.09205544900043364,0.038142732857771009,-0.07275577587835242,-0.008441008144731501,-0.03482405500272966,-0.025852193865405178,-0.10651943403080946,-0.02326729675669264,0.05852136891047476,0.05857882074845076,0.18198515777403186,0.10523295808288125,0.052306256962281787,0.05335926099334772,-0.10438757818724802,-0.03430214435331302,-0.04352001806568704,0.004550842207507357,-0.015101338055298557,-0.0080099534693033,-0.050845891176474988,-0.04129403184100535,0.03335309008328541,0.03154094654649107,0.07180951196338552,0.10628355334913127,0.10149999846235693,0.13755810329681396,0.046210078932173329,0.05423297530998515,-0.13488522875841406,-0.06126606673052047,-0.06170685220164078,-0.005360954976908629,0.014417775956782243,-0.006537258655994478,0.030244819089585319,0.14969664623110749,0.13205392631771216,0.15213825531705178,0.07278307235285443,0.0711457858749094,0.002469860808520797,-0.028924978930114917,-0.019654752934411509,0.03587128439518717,-0.05008162557524698,0.02162297352015359,-0.00024049070490473733,0.03307846673386385,0.05639805669980481,0.13103031684989253,0.07524549133065768,0.007287042372011572,0.0002566931348241617,0.03061462901203899,0.11444618979805461,0.05040940820814801,-0.028594446559676243,-0.06103795233630288,-0.017962079456522754,-0.02608182972799294,-0.05160248536338831,-0.10037524834622136,0.0024862474050228787,-0.0004953485725153887,0.0312975915802148,0.08442315398957307,0.1744038605141275,0.10836155788472989,0.047600446245160066,-0.035786977928817857,-0.048096519406514947,-0.03848212339929218,0.015137998576690536,0.020608492610935934,0.01977772243953219,-0.0033558182835425429,0.019718275104601926,-0.012150821641007568,-0.032756641899701319,-0.03178506839225676,-0.014007473178683757,0.06456289998843595,0.09675199668409303,0.16031151130586386,-0.001132329067306042,-0.03272925069507095,-0.07513554929475362,-0.06801376567842267,-0.016367932471211056,-0.09018920665260287,-0.10956443330716406,-0.08515822926500602,-0.035778267849544489,-0.0071665034492217,-0.008363559437312112,0.06554809882171063,0.07185503457548526,0.06168282542357242,-0.03039376135042759,-0.04220786569100306,-0.02421581355482091,0.07719423653356021,0.11548807232354189,0.053545114314292378,0.01569974996876435,-0.07403400142392035,-0.0927052028896369,-0.05331574324299334,-0.061721059416000759,0.05069158010974326,0.0660236281939184,0.07181567109587645,-0.015968066807157696,-0.07964163055710053,-0.0254204300775038,-0.09913133996643234,-0.07402013178008223,-0.06877860372496032,-0.0817875060126959,-0.06296437778451261,-0.08490241799871848,-0.04414587126836713,-0.0780896557244246,-0.10407764063497666,-0.006055649808997721,0.05099379656840177,-0.020381241776763184,-0.04982035119926481,-0.04007795724326138,0.059941255183661657,0.03938667884626899,0.0013103250838436096,-0.028644221660791816,-0.1302948234366881,-0.18636748828567455,-0.15513577044168803,-0.1182351619194036,-0.04106771080435298,-0.028789092057158445,-0.09940212021348996,0.00972337801000298,0.004774733875630264,-0.007367148646672446,-0.06835483745936512,-0.04814889781682073,-0.0772695680324893,-0.04527845626919875,-0.08360581260675579,-0.08829222779156791,-0.07304938737934933,-0.0767983568034743,-0.009414586965070823,-0.02037693563207484,-0.0031249345058955337,0.015500735763101717,-0.10490708223838578,-0.011032495857547693,0.04911069663153619,0.0974768095523698,0.0005763020547643336,0.006658137981412659,-0.1251398194670352,-0.109832760235545,-0.06540005297527139,-0.06742061273758904,-0.11101925282805908,-0.04572173141945496,-0.006013466040780367,0.030354428164967658,-0.010830487759226244,-0.023921942334147119,-0.008744420370044712,-0.05952911668788247,-0.06979824496983261,-0.07204466787572,-0.09025515639044699,0.006617342240868343,-0.08157750590871847,-0.10613318107085715,-0.05877776956033439,-0.05426655882573599,0.05439569600906583,-0.003272460462087314,-0.008658987793194089,-0.049671704919567159,-0.049220419243809748,-0.013520960761844975,0.08971854375038765,0.048736367728864537,-0.05266712983975588,-0.02159596759458149,-0.07267840989012065,-0.10745817060015946,-0.019542356530433338,-0.051669699869236539,0.05180111596105991,-0.040798593022294157,-0.014575238630417586,-0.06286575364319803,-0.03941931079566971,-0.044588351134627907,-0.04638304727408765,-0.04741833669104421,-0.11641035101192669,-0.1010701893939117,-0.06476542857112054,-0.06732263276871585,-0.04323649585628414,-0.05797593258952145,-0.04936956658875657,-0.019166597412997877,-0.071135651740355,0.0006979248156547764,-0.07350257189958808,0.018488626030544524,0.10087344425132393,0.10572019623893947,0.04288448422302648,0.03442547038504156,-0.05009463562990845,0.004532489443369278,0.0016635286209701897,-0.1251330094674155,-0.06079591196398896,-0.08869218329623231,-0.0007666257057944759,-0.031304469222118828,-0.013833180601741704,-0.014651035899729425,-0.020923607168362444,-0.02075221324427476,-0.011189460121433589,-0.04315936927675688,-0.009041004045569134,-0.05320287087758245,-0.029691682947236798,-0.03863051713674513,-0.016972772635121818,0.013260199218263472,-0.02729626689894631,0.018328860956646869,-0.022853580464053049,0.031598951117115438,0.07738149373754209,0.002254099634072031,0.06996676093381722,0.08138630250163698,0.00994758110918062,0.01760592391932365,0.06132823264161648,-0.04790025935180591,-0.04326708907727944,-0.011449498415861915,0.008473415384135959,-0.004943180610525826,-0.07261622255896996,-0.03346249983697115,-0.018706288490205226,-0.02847533842710291,0.010856528949400904,-0.005348117015419917,-0.014842198743799674,-0.029394311365647568,-0.0338079088496496,-0.04072984016321402,-0.021496640438419445,-0.04732916985030846,-0.042981994082516458,-0.004033890807158919,0.0076295496221992849,0.047842585891129527,0.050783192559805238,0.08550651315742569,0.027346180853117447,0.09565559061904912,0.03218303400391894,0.03017632038164978,-0.00013836937414620653,0.007629714429091239,-0.026079181442909096,-0.03638041953343345,-0.01842820699815846,0.006076913703180355,-0.02823037313561382,0.04491350887308069,0.020667736619153076,-0.08342262296553135,-0.0503071998276652,0.005479687168185445,-0.004858972515830304,-0.00021788589669581183,0.013525181497504903,-0.03267751064470687,-0.0009675965984803469,-0.02792304843212527,-0.012958945508087367,-0.02594711920148997,0.023863593414477786,0.05319462908833794,0.061426926466006729,0.022986713957214544,-0.025253933225626376,0.02936517550726345,0.06309023644346368,0.0594259615061294,0.021728061497108779,-0.0037533309158688098,-0.01225307216203941,-0.034906969811372489,-0.025210259262024107,-0.005796469071633602,0.02476129858215175,0.008174127462934597,-0.016839989438062539,-0.024817246633808345,-0.05674587524458725,-0.07387747772705669,-0.04213630588983995,-0.04061723046241031,-0.07233445054035653,-0.03486214357456691,-0.021531520625176313,-0.08639791949522471,-0.06231059441012895,-0.06131002265293752,-0.008078141746968053,-0.006205529619925234,0.00917192228972057,-0.03083490385251424,0.022560352012230893,0.027053805023616437,0.04710659412913753,0.0922927311683097,0.03736298596534819,0.018142529180255115,0.031054159640946885,0.02916094264434369,-0.028682781841308837,-0.008445474265460617,0.011009981544228345,-0.04214227444006506,-0.03896634645529581,0.003844675960404775,-0.013285499397142527,-0.02281538547535693,0.027005577192622557,-0.030981140464360077,-0.008571889238516919,-0.05217074424856014,-0.054458187213878909,-0.059169823784519178,-0.114042744049591,-0.0859027098824946,-0.05587827423425328,-0.051338688676383487,-0.06563597657947364,-0.004744750718435799,-0.0058023672612582109,-0.004230450811304263,0.07618318004455577,0.043472421619528137,0.053848920458291819,-0.023362516852314206,-0.007471795351775877,-0.04075579064652787,0.04422845071520277,-0.0066190001552403668,0.010738129989974902,0.02459334467018918,-0.008172312886850343,0.013701757686913509,0.013476537188301708,-0.03106081971895528,0.0008809063527131608,-0.02424801148487535,0.05085147342970216,0.03843387292545523,-0.03529388129073683,-0.024338733440882198,-0.026722153159222017,-0.0443043846011962,-0.04034408411403463,0.012266560981099025,-0.05672272516303418,0.027876859258997665,0.050661947192617049,-0.008771220502478592,0.0327391809266166,0.024507240419050236,0.02548476932070161,-0.025943053574630359,-0.011665492802782314,-0.013613466665121688,0.004040839800271515,0.007373367109714939,-0.0025203694394503159,-0.0038969531265365434,-0.005379824808980837,0.017332588280522786,-0.011126880940265956,-0.013599173250616014,0.00936196767671702,0.06183476387990103,0.026551639893174118,0.07049283056661339,0.02905662989311918,-0.014725740782495967,-0.010360239750697727,0.020990008422255479,0.07633939405217009,0.024709883881156949,0.02171153629927603,-0.010214282333440619,0.012922955467521706,-0.04079321912020949,-0.02488404769984631,-0.0020283083351594966,0.038335181786594379,-0.011411141652232116,-0.003416225495669003,0.007826111884856227,0.0054454189938822829,-0.030031956802650356,0.013098038696342515,0.008995195711885366,-0.06114288668699436,-0.03762004814906727,0.00055107746933831,-0.024382011561820899,-0.06273158186676302,-0.03793786420504324,0.07038173672461132,0.0819936154805883,0.12228534031599175,0.13086509388653592,0.161350855356458,0.07958349090244835,0.055219841996570578,0.12000134594347692,0.015199910579311849,-0.019553075286343543,0.0035836201821777557,0.03668536581416651,-0.06200762237111848,-0.10395099678478075,-0.005102891102642015,-0.01318262008461908,-0.020471793633053554,-0.01844455448194605,0.0034561693636937088,0.036173100806993808,0.04214135605774999,-0.07034207493300832,-0.028814236037440566,-0.006430732664768442,0.0267954548110878,-0.03493502200337188,0.12669793185966525,0.1639433447693365,0.22632830280489434,0.23801735211818188,0.08658623867219284,0.1054129070090965,0.05423661263734247,0.01664220057429914,0.06395864888231379,0.17238887452493696,0.1982624788797433,0.104834343258965,-0.02992679642624975,-0.029090823869887478,-0.0060274446945355639,-0.16547814911387877,-0.15616438016531659,-0.030222202835250478,-0.09227341802783885,-0.018183120112713843,0.025731225403290017,-0.016634127558353454,-0.05080604247080996,-0.0691508868567112,-0.09332728474070627,-0.017625952962268277,0.12796862628204828,0.06357403089209184,0.20572951439033652,0.11738128751117227,0.01668902618159519,0.08357097896921219,0.01915921121274564,-0.013768950775890415,-0.0403496774077881,-0.06805884259697968,-0.05746811908478725,0.0004771775286285164,-0.015557476361466297,0.12154569177129725,-0.04022260007328376,0.000262165533748725,-0.10410619565477003,-0.07976837243109709,-0.11878699876637997,0.016747707443779564,0.019808806319704016,-0.013372069575070084,-0.03260161080099075,-0.1161287252526124,-0.12235168433136122,-0.14077391165708817,-0.1803479026464953,-0.16095914682590613,0.08341115572667232,0.02087978231345845,0.16739999622575287,0.06062343817322352,0.06850973503473705,0.10651852789786114,0.08058392235877504,0.026745062034260276,0.002280416525793986,-0.05374227556437962,-0.03632579029205814,-0.009360619230134468,0.018047011235175826,0.009171984280755688,0.043934893802731928,-0.022846217654223227,-0.07256454833374357,-0.12019946601026586,-0.12718768611183693,-0.05844817109578175,-0.009715741035658822,-0.036934215331240808,-0.05244063721254588,-0.0911006595193749,-0.2147659660207161,-0.24486563056932976,-0.2689994132884405,-0.1452562824718662,0.029764712130990947,0.05755875697900238,0.07739616109188179,0.03321492636478289,0.057159960871255219,-0.0022766807640519934,-0.02503903937260122,-0.04264597296131261,0.045474254175969789,0.010816615308486162,-0.04772046335904373,-0.04163543141522946,-0.02482461548405947,-0.05018810850033575,-0.028445836132304705,-0.016016488678543697,-0.12385166277774089,-0.16959563337922119,-0.16554813801700353,0.029960200184511278,0.016951768511876635,-0.014726422321748633,-0.02917721401093308,-0.1280362860171005,-0.17578048784548726,-0.20180900194455923,-0.1490233069611623,-0.1262462276615158,0.02725579113370274,0.0675003262072973,0.07175613908968302,0.001265799584280048,0.006202895062319909,0.028579924132513286,-0.0355280551643422,-0.005062932738789777,-0.017007994230041954,0.052193814739677459,-0.04186087488276374,-0.03380902952696977,-0.05575770389949803,0.00030657667939856776,-0.024556124628843054,-0.02863510093850166,-0.14450098141032736,-0.10175163810888129,-0.04467383508348955,0.06859511625971833,0.07123592199150662,-0.02970257253551605,-0.035773880382146707,-0.08244701123634202,-0.16745538127309393,-0.14524289228889759,-0.09243228259461832,-0.0502497594704471,0.024596368557205367,0.004905442603429055,0.0009661051599092964,-0.02108483899531113,-0.03379565909288755,0.033449088320145047,-0.05587359193305375,-0.07645693815307915,-0.08590806310085467,0.008627672405097624,-0.01774477160791745,-0.03698964553804475,-0.03844705188172222,-0.07252013096405015,-0.16110587997474352,-0.14615889964606725,-0.1708703098084257,-0.06280470107451053,-0.12496480027643538,0.02974689062696069,0.04944663706446889,-0.05409935141467717,-0.01877212802343901,-0.09407799764955693,-0.11597621210419315,-0.0989739246111852,-0.07283867594786495,0.02129109804529227,-0.002206549911483956,-0.03179561223693602,0.0245264291333766,0.03321176109011886,-0.0466783351937159,-0.04836402555367082,-0.06296917965142122,-0.06745443949594568,-0.008178477484938433,-0.0064630230198776329,-0.012680428401651499,0.014460347146110647,0.014768099663096012,-0.05886585207605952,-0.13526745820474068,-0.17080183539765668,-0.032695589258430687,0.0449103739728353,0.06321834122559539,0.11707697895998562,0.039269268164888088,-0.04405496831607108,-0.010372976918578107,-0.0348799025380957,-0.1075706105592969,-0.009470449846245661,-0.07144251846602902,0.010920189318993294,0.05331001821535311,-0.08992654584443198,-0.007001449880524848,0.05757777864298759,0.03567032309037615,-0.010238761436422575,-0.05874481077695811,-0.09004992511292065,-0.045133833417251138,-0.02245700776845936,0.05969317716201419,0.11386735564049211,-0.021365210603290675,-0.10492850989522557,-0.16306905774407128,-0.11408552453874405,-0.004449792422273691,-0.0002352283809603932,0.0552091502363961,0.17876808476357324,0.06664793056467716,-0.022111570623441689,0.02193215876314276,-0.088671938972716,-0.053890061103212188,-0.0029152546268060147,0.0296123985262224,0.11147274091054621,0.060056380178025278,0.030452488157192645,0.08985419697605277,0.058490251692693579,0.1183399005926042,0.09102375983883282,-0.0059311803558857599,-0.01644634457522548,-0.036210503379524337,-0.00033741101014667834,-0.0280202122166774,0.04737540355208809,-0.004229552409319129,-0.13733729032743997,-0.1902599961786315,-0.17132138218108804,-0.04616911076447783,0.05931790138638211,0.08856172418115097,0.11602093205432398,0.04844148839370448,-0.054605623014512359,0.037740367755516559,-0.06570267896815316,-0.04851035026442375,-0.03826388503865737,-0.0016859793282452615,0.08317967953569595,0.04496930318531453,0.08930930071594809,0.02595349056558901,0.054018448834997557,-0.004705243364536626,0.013374610809781463,0.0016649407239222188,-0.01541430500115099,0.016447901543694644,0.0816283350622839,0.09473238702118514,0.08777855687091085,0.023966708832262656,-0.07112742281116354,-0.22877923895456207,-0.10859085754113127,-0.03857101488314789,0.12162666322533383,0.10212418512206317,0.14778951503123056,0.10539437665674599,0.02022848222400514,-0.04783127917713953,-0.13422780464664764,-0.1298900951381282,-0.12297022679761344,-0.06070320485543644,0.10598152318821699,0.040751900252919078,0.02533059747940127,0.033679501818905308,0.015812189513411194,-0.09868848693831325,-0.1327691197772979,-0.06984041343339775,-0.1773432153703114,-0.16840973053702266,-0.04325400367011902,0.017300749270202064,0.0054805022267197319,-0.02335829620649766,-0.037084285884458657,-0.2652888938083783,-0.3182008880564338,-0.0027236660088864859,0.027667883619194489,0.06713784279778334,0.049987257356729378,0.016326492419482236,0.053586767087167617,-0.056227920071663047,-0.09289327667385311,-0.17206501595656424,-0.10377730643258788,-0.07647141361569276,-0.008367387719226044,0.0629532108712351,0.05034737221313575,-0.015845276161291716,-0.04885493139258235,-0.13325906476890779,-0.1566812966745331,-0.15624142131049383,-0.17423806451054939,-0.15922404080656619,-0.13448723208511435,-0.01937574589202782,-0.07045498518343031,-0.10178822951088253,-0.014295301555049205,-0.11407671174067093,-0.151029100941321,-0.20736537987068386,0.016212432797121008,0.015351063875027225,-0.008670336155849734,-0.030877911198450147,0.03563696810009967,-0.02360354901266866,-0.04612179753950359,-0.09266836302452145,-0.08583566456670905,-0.03152906492560646,-0.008278797241944233,-0.0011060644304748556,0.03619557926915916,0.1006136391916352,-0.00785659385387357,-0.011113017464092438,-0.04881234565652727,-0.07852458612213623,-0.14099701662059709,-0.11108716727386195,-0.0885553415175299,-0.05357645283631212,-0.07372806699211154,-0.11520341094025909,-0.08659914422962427,-0.040324453350218249,-0.012463357625753869,-0.16357536940432425,-0.007339802602548294,0.027228721063731408,0.07431082488662172,0.023996750208695067,-0.0027932661086757014,0.02641822003733764,0.023503399368625577,-0.10219101642256406,-0.10823265601681459,-0.020248281638997845,-0.06146108051546089,-0.03469143389003561,0.03251870908995752,0.06481985717532629,0.010906874819649634,-0.10767598147009286,-0.03508904936916722,-0.009864833985707256,-0.16479374132973194,-0.033720687870412,-0.03041329444608123,-0.03903436518579679,0.013126258341072119,-0.07559200070070181,0.013135099556425043,0.027151945532426948,0.04089134180818323,-0.06982078607264687,-0.007342784285820595,-0.007417288499963219,0.03392123373089294,0.07094460630899323,0.07038614894343404,-0.04373195233838236,-0.01118119140898163,-0.04276507354449551,-0.07181961944325802,0.09902859384370395,-0.008451139172597895,-0.06990763539535602,0.06750209590267198,-0.0069989094600597149,-0.036442819588637719,-0.09012814064768385,-0.1280607998398536,-0.023699549216827027,-0.07292413920172611,-0.03493274490887367,0.05708239053296752,0.009365141488925899,0.06505617642855186,-0.001503775394696589,0.011617812701149899,0.11875529078549557,0.07873374723307322,-0.17410570822832645,-0.10359271248349787,-0.06800018935985936,-0.06160295862917787,0.1280243932604564,0.08698802266325083,-0.012971833413800274,-0.018528220572357255,-0.04710493979582077,-0.09402510053761758,0.05021997494549164,0.006090851140571885,-0.04561204062221656,0.12576645828377235,0.07304769261074615,-0.037169417565386459,-0.10228237198766882,-0.15716053420536314,-0.016312724986814927,-0.06639758350340985,-0.05409573905473444,0.07870076544617923,0.04324009334862435,0.08764432763673962,0.11427880497079975,0.021455704632973625,0.09675423713295742,0.15806179114649258,0.03883449936389744,-0.02393123771009043,-0.09052107923198555,-0.09527271123040251,-0.03665361983662475,0.08272774670531785,-0.005270563087352496,0.015168570144007425,-0.019523799106162724,-0.07196095337913065,0.07556804211733162,0.08124900247086982,0.0017616486087827658,0.21353796154307104,-0.010840825184097488,0.0037303073370836897,-0.09746800224115027,-0.04781517812600457,-0.014007272970149072,-0.07914595168663727,-0.08282834174939151,0.03267589312243359,0.018231609767602274,0.121761890120445,0.12841112775842265,-0.04709755942749124,0.17784936358672066,0.15328416050337988,0.11651017481035397,0.14256270804699978,0.052390756682798387,-0.09787718592749503,0.027407026241492738,0.02797154519634622,-0.04171449933699879,0.010095476709346267,-0.022391310941948508,-0.01733171739362357,0.07739668781973129,0.08548752589654818,0.02641867759264866,0.1850942021987385,-0.03226908076942072,-0.08235442065235355,-0.09059384862167612,-0.10487174510620558,-0.015132350134086616,-0.010425446486184967,-0.05966251998650342,0.056653818890165009,0.039420960838216317,0.09406308807348674,0.09041657108102959,-0.019466381775491885,0.15682263368964373,0.13715571383399192,0.11196167486376858,0.11527504569167063,0.032716939179804459,-0.012194853368445502,0.03470941033151326,0.02942044321801083,0.02074713334877887,0.02821883914505593,0.059939712330011617,-0.005656338745892252,0.08461399113907685,0.14877602629566773,0.08594772351653077,0.1190889086662872,-0.07233242749479811,-0.09961980590537265,-0.08863348006483946,-0.051581828659365797,-0.0400505264376486,-0.08510235541088737,-0.1223765621412071,-0.008549895200397272,0.062177705093917689,0.010560737720709399,-0.015704766913463936,-0.038357644817655977,0.03378259963554958,0.13963594019704418,0.17170499489275996,0.11726375194882924,0.02152477297202443,-0.00719043014895682,0.09534300483813989,0.023732514256479484,0.00897523685319148,0.002678144594047174,0.015449607938949964,0.09532544219730274,0.019896521532571318,0.10608863266341301,0.06821583621427979,0.09529828098569863,-0.13887423850040654,-0.09551367485371575,-0.1008386503869014,-0.009348693951262264,-0.004806676814424905,0.03279652074796842,0.04461411643805818,0.0073534671704004578,0.051811930885561,-0.006282729067069087,-0.10029467699080758,-0.13252073165343285,-0.04699056461903695,0.10318161541876392,0.16687393687385577,0.16005485293157616,0.06938924655639957,0.034674061047029348,0.05003071830615772,0.011743178750038643,0.045025270088234248,0.02269345553042348,0.05899299364998824,0.07696032364366379,-0.017234276009790739,0.1172653008518007,0.009127685777658669,0.014539428509604838,-0.08576266350774785,-0.15160715981957915,-0.06123536429562052,-0.018215430807836706,0.05732680443771205,0.03636969474171686,0.061538680117164377,0.1274416202486938,-0.010404331447719169,0.026525584650774319,-0.05377086995859122,-0.03854840473307787,-0.01165403755295623,0.16053074118820274,0.19362513384323269,0.1630524590360133,0.046153490582105879,0.08895683890430334,0.0724740779115062,-0.024187384608593444,-0.03702670569117293,0.015290079386380879,0.015818472328702695,0.020238599486904909,0.05827968290007934,0.13122864392804105,0.1263228184962,-0.05538633716501175,-0.04660929680899276,-0.1313665334591235,-0.037631195881685588,-0.03352697685493963,-0.05011615509323171,-0.013419895521444528,0.014951958508171619,0.05747788056904814,-0.019273275823543307,-0.008850133637502856,-0.04031910386594834,-0.08309935793075629,-0.03857068619408336,0.12442699574644167,0.1817038152440345,0.18970900277555376,0.06062704054704841,0.09444322486844832,0.011959602761692738,-0.0018563530968039493,0.01966197633532371,-0.002895872323749957,-0.03061201108200869,0.06766097450858165,0.0952581603382806,0.11575781958850291,0.05674517348505018,0.0438949998709857,-0.08733551390767495,-0.048630731401507757,-0.04224977329446798,-0.04031307646668721,0.08084931150178575,0.036682478406135827,0.037262080462083509,0.08817072749133093,0.011224324188240317,-0.049060813413036547,-0.033491046129439188,-0.0261344052313776,0.015281009048256755,0.2193043617138789,0.19256282026659156,0.13038463302881324,0.14279380394910683,0.14452144057625369,0.015407906156686469,0.014694879619127181,-0.01284275297810472,0.007134561890453368,0.039572833049839117,0.06096342696653974,0.09522532213025174,0.07386088066104912,-0.01819269904674792,-0.03078463622553542,0.027190787158417115,-0.038720657607521229,-0.03701498985890377,-0.008343979276108339,0.03416795622796745,0.08274926692300244,-0.034055979343976017,0.0487370883030001,0.04068093659058921,0.08447915988829169,-0.07674979164279734,0.030125020726261353,0.07199663919047762,0.23443566885256596,0.21833647596620446,0.1573458377951814,0.08317257241103442,0.06586201205396791,0.02916965709732874,0.003650678284814411,-0.0033246707962543249,-0.0018968552981016513,0.005057432676678748,0.004730774278036968,0.09550902494486159,0.03988288467888426,0.07609182748602397,-0.12437845736216784,-0.1718649191010895,-0.1841251907119564,0.04230259955724696,0.08753307416340897,0.052777558860366269,0.1674627212009341,0.1731097091822226,0.17111567189490774,0.0026242120484680946,0.03144026657142719,-0.04471347861807426,-0.10969020918532585,-0.018398332658725464,0.14661707132068245,0.1595514107075529,0.11148625821606363,0.03903643320010633,0.01509138989819952,-0.016592011149398464,0.007566770995153032,0.012130341629300766,0.014740556457487519,-0.025401166596988515,-0.01863213911886415,0.012881399216225028,-0.02981650963348304,-0.019776654587550819,0.003020033449377827,-0.1600139642173707,-0.27692132486654227,-0.14398445394341448,-0.03508868696715703,0.0478142005630062,0.0060129992835717409,0.043605836222286229,0.11644582206940703,0.05095876147687222,-0.10138111218604029,-0.17228589584433019,-0.117338966911736,0.047318331823054619,0.028746313963949736,0.025327090251418596,-0.019111237973226008,-0.009359556687277046,-0.054867332079534609,-0.03534600391106246,0.015541985503919887,0.01951686974307891,-0.01352309470033098,-0.06211727885750176,-0.027097190341973364,-0.018022063824963624,0.02694673862723889,-0.030367224534960405,-0.11784270667929799,-0.005740424282346382,-0.01985737756370652,-0.16702090963975425,-0.07297850952249888,0.055893416666107507,-0.03860878826807047,0.03821444144419935,-0.03737141222986423,-0.03577925756738421,-0.1052191050067405,-0.07603025731813049,-0.027418879177056649,-0.06471634922141985,-0.06828418246024397,-0.05439407247632676,0.04218756170123579,-0.005143221579435881,0.020123165920791228,0.08370061413070258,-0.024924312341880324,-0.008848991323543025,-0.01176490284953659,0.021542700165846364,0.03605212895114854,-0.000938650806175972,-0.010772203960529107,-0.011439444414532579,-0.17726818482356114,-0.3259809444914232,-0.2900729870843078,-0.20013750487029278,-0.0977981100940419,-0.007996617363707793,0.09713504813486389,0.0995864037944936,-0.03363002721926627,0.012852162795454049,-0.09620412763725904,-0.17588312668822984,-0.25291656477132487,-0.1932872573206651,-0.11791329274768046,0.04307754616195326,-0.029037541936099765,0.06720663201466587,0.026323048608941449,0.028097199959450347,-0.01651321525506993,0.036505737436676389,-0.021496924491476615,-0.021650010557503917,0.08905236155299275,0.15347325885090436,-0.014822725827671075,-0.0905028549674989,-0.2802482011293145,-0.24441117229838253,-0.040192549851349689,0.06529574400851564,0.023008200799431536,0.005140245767614305,-0.025974010539855327,-0.07314908139504423,-0.1141060087914171,0.03639609599194735,-0.03340023161087727,-0.031391653895884639,-0.10576761121577516,-0.09151199461802692,-0.1031943958659306,-0.04890230982091862,0.0792107761027433,0.21732207080532296,0.09074406904545551,-0.03673830576827546,0.004662113054428434,-0.02343896504256297,-0.02674297727816793,-0.011312288912062398,0.07668633187023114,0.0664915634931928,0.025195991629614644,-0.11401980747521436,-0.03150924418202422,-0.03220996879370742,-0.02074844758593959,0.02744806541737779,-0.06965571039322928,-0.10364198290860051,-0.07295343332249538,-0.11536222716038938,-0.10195354845559648,-0.07316495693612461,-0.026455767755293067,-0.07772206210848633,-0.045034385628886289,0.006930322212600946,-0.10805811822415865,0.018971006326730455,0.13768011652573734,0.11431485465652856,0.07478316220386788,0.0004403661364586729,-0.021548262320499158,0.03090360133744728,-0.052096423652446387,-0.05241828090017809,-0.002848443149442282,0.0624070389113834,0.10428477607401876,-0.05606801069136435,-0.033365191369155128,0.03766702996127232,-0.08318150478519936,-0.07279102910190287,0.0046813898894386579,0.01035418800938378,-0.026712443391202286,-0.033778391306877767,-0.08509374140952976,-0.014319088137982392,0.018121294030595118,-0.016901968536589489,-0.05348745711528711,0.023763317911682573,-0.13663455214794843,0.06572775482205934,0.13593389458189207,0.055885195386331219,0.042176099152518308,-0.01838558718115954,-0.04498401637483059,0.015645337159911539,-0.10023489699284986,-0.059371136236629717,-0.049824137969277659,0.04401752202674979,0.0859948509673523,-0.02837030416816266,0.09782425677646628,0.04935639703592548,-0.013772085944532813,-0.0069183494399735578,-0.033446421389641548,0.0631749080836105,0.0094657834607599,-0.009206946444999229,-0.02394695950585939,-0.0476090390478524,-0.055618560596656898,-0.009383328132429776,-0.03535241022268198,0.11543306752730807,-0.09398527524098914,0.1389553130760488,0.13505000950923155,0.07675109814644279,0.07569847507133136,-0.07011868263484079,0.0018718131361454448,-0.02582133152753374,-0.06350310809645865,-0.019716303432356386,0.06284377637444558,0.11058041471548427,0.06327048467691388,0.004950987422105884,0.08642978984023844,0.003439471517795007,-0.0780938352234621,-0.041074538953063437,0.02695963195565903,0.03572363080587371,-0.06314946564666227,-0.017264293829287064,0.014635103583390329,0.05943012420023741,0.003185396776416413,-0.11259564663284884,0.009287033589103095,0.14379516085646744,0.05707668102976314,0.14228144314005659,0.11086149910628258,0.06107603426307245,0.10708359699979095,0.011582808196013962,-0.04533844581503795,-0.05878717117532518,-0.04856922846751786,-0.0430808909815492,0.03719410373791323,0.126662162712761,0.1203425742487693,0.10708407663689691,0.0780469244094459,-0.021773355470836188,-0.1110900804189745,-0.06926054979284499,-0.07571533339862848,-0.004076529657155999,0.02707132639454516,0.05572294072601943,0.05519575313247992,0.07846217838765908,-0.047179854401063817,-0.02367024579170936,-0.033533838198119527,0.07555540343711374,0.06956026129372266,0.16016107197190364,0.16567254807075494,0.11392361066807273,0.03596281348420557,-0.05435900133141072,-0.040505466909572258,-0.005722448291011829,-0.06769202372160843,-0.024772133614480764,-0.02884692979079475,0.07615502109758572,0.10399021739433387,0.15374536993439903,0.16045162212625295,-0.06176296353444312,-0.04072644174319636,-0.04701291854158219,-0.02122237775965043,0.0609892021651393,0.006473576729458967,0.0397585206805691,0.08547024167352427,0.03999396567077119,0.021925762639179764,-0.008616990305687626,-0.00005447930321616655,0.01877590736352139,0.10279857604388076,0.24244012902795027,0.15294920292798276,0.15216364236665537,0.08543428271154444,-0.035789665424147177,-0.030157559174610678,-0.03165182373636496,-0.03558116056527531,0.012642288277098568,0.09068532807965485,0.14472022335305388,0.15145529470409553,0.2160317131295315,0.1275975260700618,-0.09412454020295343,-0.10764760627643556,-0.10610814453499612,-0.03271543305800809,-0.04358645991273507,-0.03473725879036091,-0.07492273823657454,-0.0443475434094217,-0.05874442177264982,0.015854728840481906,-0.1269832591363421,-0.11285746375992283,-0.026021354441989016,0.2007223677548817,0.2685157667064109,0.1418004199614477,0.20301875375680399,0.08931427906226931,-0.017145100177581447,-0.03831023682661322,0.05452034800458101,-0.04055726778715498,-0.023111896824281134,0.0751792109067128,0.06146378695895199,0.03815774294713591,0.11333400826169513,0.13506229101891266,-0.11768678253619243,-0.011371596407166498,-0.09052293456871449,0.013204099391803373,-0.02631519223668647,-0.014852813041398183,-0.0767188437310836,-0.03226495475202184,0.02028352544608797,-0.05139048985824621,-0.05460712820663536,-0.0663452352904236,0.022914721781375655,0.02342942772763619,0.07802303443634928,0.07501009188747732,0.10239511637834875,-0.0039032195770240206,-0.07720916536139402,-0.038022224324631159,-0.023847683283069178,-0.051715976058847989,-0.07534771734584857,0.1039643039444106,0.05557319362473947,0.05428712437100814,0.08825205066068955,0.19174040466497919,0.05266171525089067,0.015596755577262492,-0.006800109618042363,-0.008058593268796025,-0.02321603614195689,0.05950495214549867,-0.005260987121850641,0.039329718653837487,0.04892790697024052,-0.013545111946540564,-0.0921754923740749,0.079257545895587,0.07099468406961722,-0.002109381047219987,0.045404647628213137,0.06997890379010909,0.12943250929858075,0.04499142751549776,-0.09671206651568433,-0.0498420158475667,-0.04404333659724822,-0.07749824954877839,-0.015313586453954045,0.08186422395215684,0.04026422957611663,0.025917441485133576,-0.029611603757115028,0.09327419889248376,0.024683202056459475,-0.04687869518775832,-0.04019011434465358,-0.036929033810311189,-0.05082829639597243,-0.023062194086438165,-0.03877899637471246,-0.030635739163897264,-0.08054619870437582,-0.013930685266626097,-0.04692714145740837,0.04258411469651202,0.08559356574162527,-0.002295203189040759,0.013146745460420287,0.07264661816127835,0.14825032491044727,-0.015190202818732473,-0.09906747497937806,-0.01147396704970885,-0.018495538848716125,-0.08112416614827717,-0.03906073774865493,-0.020636850475584228,0.01848078812277583,-0.012397154668720739,0.033616692344731507,0.14334450875759173,0.1364746728749462,-0.034459731191788519,-0.0788618664604448,-0.046962260538747978,-0.08940994827173951,0.0008630667972481084,0.06746425534360054,-0.018508338616721525,-0.04137802342551075,-0.019791371016946399,-0.0651884378056828,0.03650934029454148,0.12341450898791294,0.030124026377049228,0.032532847534647638,0.12307837660033987,0.054203749379659268,-0.03518805467687543,-0.10360861629745939,-0.0769948577906422,-0.06452872873774483,-0.13030182253341725,-0.08258130825385526,-0.05191932881419332,-0.022463401878481446,-0.07855770838375115,-0.028018337443922044,0.06586275647018537,0.09289841291041942,-0.03981065574770012,0.010298021740283804,-0.02669497959962099,-0.0689369575488569,0.041099503883547289,0.05885668249716795,-0.032661494948857238,-0.08396217618082673,-0.12320844277704549,-0.015643893256185268,0.04166707155732755,0.09279002304640088,-0.03454698202887025,-0.05285349006977452,-0.05091528595267853,0.022716079238008708,-0.04869783625283843,-0.12251642209552108,-0.051716845969946498,-0.03752812887166747,-0.10241416647297003,-0.08336135443842721,-0.04649248289515338,-0.06208564235899583,-0.15250373610630844,-0.08875659867402329,0.04286012980698925,0.131820925506356,0.1019897318348489,0.04596857789705685,0.006640787929530104,0.03232163713567295,0.03246761138608578,0.04646834967936975,0.02055551738740124,-0.06286435734744789,-0.10511271611527477,-0.038712955032499007,0.05225025437456302,0.02915040610456457,-0.055483571787883507,0.028091539286220617,0.01922525777245997,-0.04187517765220655,-0.10688202854460043,-0.11342114090396348,-0.030028385931366899,-0.025765341761865985,-0.1023032255732655,-0.12863177877032437,-0.06919942782739123,-0.074102659476979,-0.02844440152554278,-0.0029770515175741778,0.06583639564672068,0.10321804620206507,0.11001901402809561,-0.03715658124112223,-0.01975872150148309,-0.1346215484588369,-0.04465531820720419,0.028836703797630367,0.021705618104217396,-0.08697961214765378,-0.11879954296527326,-0.054122964399723468,-0.01781073135904332,0.014199792233263138,-0.08433536751893371,0.0349333031737909,-0.10610559608621191,-0.08426488711180245,-0.16621533533920603,-0.07372450920567277,-0.0419323956694175,-0.05383199060431597,-0.045651427417865649,-0.09221551291944974,-0.09458674375453441,-0.053216120710884527,-0.08349134714009518,-0.011597388846182794,-0.005883665127324572,0.10967322601606534,0.0735258102875037,0.0018769753015717593,-0.03624175012199849,-0.013445589457023929,0.08819133377272913,0.05832706223617914,0.05896382997367069,-0.02720709362743049,-0.028759663597631926,0.011668334030023646,-0.0072886878728957399,-0.02840493259917921,-0.13323038876548114,-0.09804544311024761,-0.10407683999859237,-0.1276245473302754,-0.14999422615308159,-0.07939600479621621,0.001416039516781017,-0.028557739350089957,-0.05421813564758478,-0.09929212148432322,0.007638357472809275,-0.02284651012080365,-0.1477921543257824,-0.11306999512737555,-0.019675052523111557,0.12560334925157125,0.05807086723333537,-0.047828467837192117,-0.04064557408523177,-0.006926714187525907,0.04719659354315843,0.12430887764837681,0.05881988463736681,-0.04298372603883098,0.005336637683422751,-0.02507751828104452,0.04167165122455361,-0.016866565107126906,-0.14274603292840819,-0.09369035399973884,-0.10188083872840578,-0.07345690790396754,-0.08129005943947669,-0.08278137277717548,-0.04531853101241913,0.007084221356280538,-0.036161211818668447,-0.03911696227506964,-0.043230503657415288,-0.11676804978105519,-0.14914896629762953,-0.11740669062235444,0.10506442472844743,0.07082898024395884,0.1496915788107086,-0.06140289878009893,-0.03005750878838721,-0.07670913174942497,0.05886532486069406,0.16114973076867229,0.002823261371375261,-0.013879380809315782,-0.04392193541114631,-0.04090865815888204,0.08273720829136752,0.04443636521736034,-0.16396423764461286,-0.10647133472529541,-0.11584861272648836,-0.1950459245247654,-0.12850339658852129,-0.08083104544932313,-0.015457024259533306,0.04389411561778113,-0.053288369649474257,-0.05337534453050313,-0.09991644112881217,-0.1646654871472487,-0.12403113057460393,-0.08861841423264976,0.05222856934318843,-0.0015047701997103977,0.04138429964632066,-0.05969387437047295,-0.009582939981229447,-0.07349066078133265,-0.006358684634401125,0.09112400443390503,0.002752295759998772,0.000784634065902168,-0.05738277292189591,0.0013078503184903669,-0.03054011158440584,0.004991319963138131,-0.1475778802019116,-0.10061587692531315,-0.1261730573750708,-0.11348013982364297,-0.10170795959489335,-0.06958382786053386,-0.03165058842347903,-0.05026798242274611,-0.029683548221322028,-0.06008418098663607,-0.05962328985471379,-0.1027964298835958,-0.1966606978061681,-0.11114818655578358,-0.01570133941493874,-0.0043083484405481409,-0.015062552795866409,-0.041169556732820227,-0.022191123718212359,-0.08323130357264393,-0.0703725269544207,0.11627510422867323,-0.03398921061582012,-0.06973895576424207,-0.11423879542605833,-0.07446815386366394,-0.06133030210222493,-0.11470121964519933,-0.08359020069472534,-0.13241987228058522,-0.12362010829998482,-0.08093496793819836,-0.07733897657688915,-0.0500815318573153,0.005783134049134381,-0.06057295993602119,-0.005731714454690339,-0.01694081637699819,-0.01781119202818466,-0.12722185140171325,-0.11142225375797399,-0.1314691330203524,-0.07195065920039028,0.013608077674176345,0.08151358131425894,0.07156264293797736,-0.04241376026920279,0.02328647364043142,-0.06448108651778492,0.17531330579250246,-0.011124413445100623,-0.07887955613239803,-0.008994891554534585,-0.041659615801747578,-0.1293196606032574,-0.09359417711539338,-0.07042113210905846,-0.16608595912851158,-0.1647471491154329,-0.13527318115015325,-0.12970980689541038,-0.0073167995185880068,0.00903915771615667,0.007493417242614881,-0.04248357565299716,0.02113714521470394,-0.04212292024863024,-0.09022681313326762,-0.07132195711506276,-0.10639616286316815,-0.004576195626887875,0.05225883335838036,-0.05328590242547973,0.01989303859255254,-0.021663785265380377,-0.06318877043825842,-0.11797435416199481,0.052669730752775169,0.08311188177198421,-0.02917253230010884,-0.13679359752687,-0.10484348332957104,-0.07348597545396546,-0.14995241051702727,-0.03243919700846777,-0.052866531194576609,-0.17530087629075359,-0.13140108060978665,-0.10888281315505659,0.006001740564513439,0.012966688587214766,0.013620857930450025,-0.044622636775926458,-0.02615818902306194,-0.046316077510591347,-0.03410671553912696,-0.03045782115580387,-0.021453394406821075,0.01621700401825586,-0.007297730050198041,-0.0064244695380697648,-0.01736489586933628,0.14342001206639977,0.03120618849900227,-0.06662822701874249,0.16103115141613079,0.10724459224046997,0.02529899245008357,0.003332321524886229,-0.12686682420515184,-0.1924462461366686,-0.08078217448992205,-0.002782748762179195,0.01822506576937796,-0.16187526575883366,-0.08407814800752579,-0.025950767677333895,0.009285070744139328,-0.028162232260629525,-0.0226489976581724,0.0025308583614044118,-0.07963521678670278,-0.021403876248664797,-0.06747016809536986,0.011779083882844386,0.02583340895117579,0.12617354903755466,0.1533394973359387,0.1547011350336577,-0.05212768311207287,0.04736471515543362,-0.03732764366314941,0.15495669457119999,0.1828323144872517,0.06118682813892377,0.14409211974744005,-0.0834523960829104,-0.1104332632698323,0.00704955718836769,0.1631384470194877,0.024371969690625666,-0.10971201949199812,-0.16772262943459016,-0.06375057979979496,-0.032268300699417818,-0.02205548892326375,-0.017205261103577803,-0.02313400934562607,-0.03322563772455523,-0.04635585802633297,-0.044238431805506957,0.0047635531720013998,0.010067730105500746,0.006995567480944261,-0.014864786712383496,0.05455975999435061,0.20170590780430154,0.2041299237845207,0.1328320026226487,0.10602551173762222,0.1985604357550833,0.21526618982672489,0.06512811201745589,0.057865130216307427,0.05650103324545806,0.1012814421812759,0.02218087948640559,-0.07919611083807998,-0.06071920575066377,-0.03074902630171614,-0.08983992690216694,-0.041793640390676799,-0.021079093719201478,-0.04967365782990249,0.010241962968639935,-0.012092507924259637,0.03080906902119377,-0.039874205458093659,0.02588424065410207,-0.004706201833308924,-0.06149131997347351,-0.048881014600996228,-0.0625629552365833,-0.05557645629875639,-0.2044561756772279,-0.20260325589345608,0.06714429618920936,0.3278938084941937,0.1858284433331764,0.25639679711252319,0.3428331117984365,0.06322852034765506,-0.2156750474587807,-0.39539338921005909,-0.2665306484469812,-0.07393804152652274,-0.04304049226808338,-0.08739287519043022,-0.04403493069744367,-0.08794222398343456,-0.06067813683509727,-0.013892685801515191,-0.04129437940139235,0.010460375868208772,-0.0032682283871860236,-0.0024154291096602279,0.020014136089277595,0.019714833275387895,-0.01649679482096492,-0.023999366274289656,-0.08032145359131637,-0.08175834248291786,-0.047476118931738777,-0.1023355687732377,-0.08552091398480499,0.31212344431098629,0.25984418769488196,0.12887747696747063,0.2710600066057345,0.01193123591874162,-0.12403726700697469,-0.12778593954187696,-0.2366979979610072,-0.15106666225238078,-0.07646302418776584,0.0058415365418499139,0.017442607070712818,0.00798286494736239,-0.03362136796623286,-0.01524375431490164,-0.01825469683062913,-0.02913648140710598,-0.005735693540295641,0.02255572495729063,0.029420070135185246,0.0019228289926688447,-0.07578447627575849,0.018148482825649308,-0.11653014554340914,-0.005989203152802332,-0.027075640008882686,0.014913276474279539,0.014886279114109259,0.0599341469814557,0.07542346073705574,0.09868393795660928,0.07603362009682394,0.06307930849956839,0.03461890725962762,-0.06835008357808847,-0.07606797102797695,-0.12305579437174931,-0.015720594129634309,0.006961441193763073,-0.03695633012071396,0.01391007606787775,0.013856484283421676,-0.033724862985532708,-0.04664438239846275,-0.028667876718536983,-0.020250452824618596,-0.026281002621890788,-0.015508039217874722,0.030067784042779719,-0.05740356853860775,0.02736275996307563,-0.07779349337368534,-0.09131742158427202,0.03038777109121447,0.07779163976570965,0.05060346026818467,0.06764815611015646,0.07492419692281882,0.08783533498316489,0.07228576818412218,0.05904263790977425,0.02292227554890624,0.058636472820996817,-0.00607166807635427,-0.09763317113877132,-0.04543257597168592,-0.07154123660239621,0.005292746529838545,0.030076970383974764,-0.016462164945352913,0.008291253389029308,0.023719190428897198,0.01405681726531333,-0.011627541357639295,0.008036324593880486,0.032659413907431187,0.019731426429185154,0.007038173610498961,0.005095197254184268,-0.06645506134726183,-0.019104759526784089,0.0187337959235845,-0.001908311416388027,-0.0044220204494312179,0.06575921292536094,0.0316205029842867,-0.0053728113839075909,-0.004169612565843306,0.01087259183013566,0.0059552121515698479,-0.004844310896699213,0.008375048684894313,-0.07622044437067481,0.006910919309188114,-0.05188681480164243,-0.05164030763209247,-0.005089485768961542,0.0091079672795645,0.040659130195062117,-0.03181294372199279,0.0034353982497049748,-0.003950881670451683,0.02370563260206143,0.02969430387639607,-0.018923539599153165,0.005160597463570543,0.03650228403734951,-0.02623545507799388,0.02074244696695612,0.039462681822031418,0.06913717506310058,0.0076133475434527939,0.018555784710279779,0.049953390657840237,-0.013846245631757832,-0.02304981455915376,-0.011845144575726026,-0.014397803271475666,0.0036735984807242025,-0.028012486630974225,-0.006629114251678249,-0.04085579559925217,-0.002045980219345802,0.07053232064086097,0.026684521718941154,0.00980669455811063,0.007925354598398847,0.022984639824991317,0.009500702442445494,0.020443083298157206,0.046232835693250918,0.03609186943595692,0.02916188793215897,0.02508429308919535,0.07688436942690855,-0.014003537517562792,0.05772438039072476,0.0406225035538427,0.011856155734844368,0.008647139459493999,-0.036508514837833638,0.014585111048469154,0.005112439969476119,-0.02908567359266163,-0.030795603920786293,-0.019789603505349565,-0.017106244571679257,-0.000665413739101396,-0.03631140362675607,-0.024357916556113365,0.07857261896687379,0.0420435190451288,0.024035444170656687,0.010752208010351329,-0.000139130883098615,-0.03903176842983126,-0.02304081683755674,0.04596926325211817,0.0051234443259974529,0.026325519320877567,0.024982251576150879,0.04541147728755361,-0.0021819961125108839,-0.06684004186163444,-0.02992979328365986,0.06722795467345012,0.05908152998625195,-0.005257656502590001,-0.02730208283612203,0.002697459151557119,-0.02070364353985463,-0.041676672107277757,-0.02987094857647898,-0.05433792974020628,-0.039231180443349087,-0.06570643127010922,-0.05652187419872128,-0.07203338456004674,0.05031144664789527,0.01512284652724022,-0.013684120934456172,0.022034510343124156,0.0026696683446305157,-0.030477315765390583,0.0028553140984493299,0.017340456639187607,-0.014205717183546508,-0.034634837428934198,0.061368245412054617,-0.016217532563925487,0.0074671475070986598,0.03534644174322075,-0.07014119668859685,-0.05684201820128238,0.00002364364216856546,-0.050981199262870657,-0.031741077746155508,-0.006957178938415771,-0.0066452009388699808,-0.06492083380722363,-0.07215008740412912,-0.050274784729250957,-0.025516882825622066,-0.044526961951898289,-0.09166733553579176,-0.024247283868691587,0.009282476234763736,0.023625847530643938,-0.00784712120347619,-0.02900111622792074,0.0055530560275380189,-0.06139064998389475,0.01479758196319936,-0.0310425320791915,0.006340125511272266,0.052715419239223019,0.04923401552823944,0.060541341415589536,0.08430538706262889,0.011812093130890805,-0.10411279114939395,0.03705856795003914,0.05334270632299886,-0.041773365851132688,0.04457319364018882,0.015879943341157746,-0.0669991753190335,-0.0008151693668930964,-0.0991647522163967,-0.12376140811882348,-0.04708910594414209,0.012805769584560922,-0.09444276463603726,-0.0627844670521053,-0.017153148927795689,0.014525623767951284,0.041631065409829009,0.05207309601317441,0.05267614383801995,-0.052320659613836608,0.027740136736031215,0.01698968457844744,-0.003259937991311521,0.07393444216806652,0.043243286483501338,0.11708650390697012,0.06261597753889947,0.03786378138264933,0.00977947561062169,0.037358827990560439,0.024748339366773399,0.028135031068509565,0.04472244962929868,0.05034989170963101,-0.014748210923780359,-0.04608259720885832,-0.023439538310072989,-0.058833502976805649,-0.020931715744371968,-0.009499729579117551,-0.033236000303217747,-0.007579844646350791,0.06332466270376142,0.03884022326266799,0.06333652094665135,0.1483999407659393,0.0647056092118873,-0.039852153819065368,-0.016369656988641715,0.07852405324936941,0.033976449574032268,0.003445871050742312,0.0010906662223458687,0.04670550521794893,0.043795496138500419,0.00892016691975592,0.013125097271902866,0.04627655251073115,-0.004085063144711964,-0.04610846551636885,0.02349920774411862,0.029046880485260087,0.00777770940628954,-0.06090704501040701,-0.06088122609227751,0.03169512125458067,0.011281040823824047,0.0013859042471141884,-0.05232651920054767,0.03508499837157193,0.028285355271997674,-0.0012797112793190018,-0.005878745606914645,0.039534953291360776,-0.012190809400011783,-0.01650630474670542,-0.046960837181438449,0.022908627304953793,-0.043556875924527779,-0.045096400169156749,0.0038279058197040534,0.00943429460718941,-0.044337314278290979,0.021244027080846808,-0.017446631616489774,-0.01071745755020703,-0.021530892658483865,0.0127987924637669,0.020896375774361377,-0.002416187694824341,0.04553426484300337,-0.004381889724048379,-0.06226054672218621,-0.09289439092761831,-0.0037558426786336626,-0.010398879719744342,-0.06816389882525907,0.03308757532864856,0.04808183661185547,0.0075832721454536619,-0.08071457209856473,-0.021363098263235394,-0.03677225122585844,0.022565929217482834,-0.0058440028527499709,-0.03913503979308014,-0.10076448435954069,-0.010370460061440728,0.02309480988682663,0.05326293626805992,0.05925440626270744,0.06785017248061383,-0.03347219186895644,0.040341982282454866,0.03314824610568198,0.007853431949379575,0.048468737459470858,0.006720896410205205,-0.03895624284316283,-0.05729122269470363,-0.0883657806372708,-0.13997322605452637,-0.016213344310417465,-0.0037898917502850028,-0.047717364920169997,0.05099868256162078,0.05514121471123752,0.05406910953759791,-0.08736890941122977,-0.08376185392407119,-0.09199385563345652,-0.02409036225896042,0.0003878484251746922,-0.02966306408417752,-0.04257797005079378,-0.030226954426785456,-0.013690746786227643,0.05436788598825277,-0.0445680083787495,0.08179256515859497,-0.10263816637788535,0.02180437856796496,0.06855492509745887,0.009449405201372335,-0.03938026040849616,-0.021506043159764573,-0.11922374967674145,-0.20173131860040748,-0.1740116837491453,-0.07489886198672458,-0.04933027755533675,0.10780458309031439,0.041906662493950707,-0.0002569846927202887,0.047434007879999098,0.04610761928702851,-0.08976089337450487,-0.15251215072378766,-0.10645388607809035,-0.026236679938401225,-0.01300155036551242,-0.004898189920807696,-0.049620283357626599,0.018051389362731614,0.017917495846391346,0.11804854173129706,0.00446441450629552,0.0957786687120407,0.08489232405604759,0.05056616547120633,0.027553813011509864,0.04129688051078832,-0.007022274253653932,-0.0871835989371907,-0.1532851837547906,-0.1947452908333379,-0.25688774280073159,-0.13117176403492085,-0.011143902364697476,0.017030883997471575,0.05881174161969761,0.06634234741089616,0.06332722579644341,0.012752534658516392,-0.056693935632745457,-0.08702765004180195,-0.07947600040435518,-0.07572369483059871,-0.05872686362909471,0.025853702571599886,0.007146348605220537,-0.06318307115915332,-0.08818079178596905,0.00157736197138971,-0.048314940716780958,0.07716326182450377,0.03551393489427889,0.04451472792775783,0.004593238512702,-0.0432190876934017,0.015850821271281066,-0.03033939785479044,-0.15250441679016489,-0.16946105009546565,-0.12363796827693394,-0.05817084727064945,0.05490537121762036,0.047764750584252769,0.07197328648887368,0.11262046025649278,0.10512714223024829,0.07676235377142028,-0.016324749932574088,-0.004562184466366541,0.02180671219306945,-0.00903618515141505,0.03712736270864348,0.01564602954576374,0.010321519073963686,0.02642972568501686,-0.024403562519974856,-0.029768166439021579,-0.02206758620012884,0.0012553127043544222,-0.03793441455564245,-0.0749718583999472,-0.07846589037747844,-0.05657581881275233,-0.0889311493409042,-0.14366997943786073,-0.20960423777213134,-0.1181500028917824,-0.053653043258022909,0.055401749495908429,0.0782085419060178,0.10897314903967778,0.08040272612356109,0.07415369660959984,0.03721482615592815,0.09436762811310398,0.12815581917485886,0.0947541726141008,0.02744266950052475,-0.013827169514173703,0.021380280154388088,-0.004428655052044049,0.0213368701965029,0.03337386126002413,0.029155889122961296,-0.03956071795052967,-0.008541959472430694,0.018814067402806536,-0.043031326066900129,-0.04668698429475015,-0.08983723615317171,-0.1729567388847288,-0.1394199308263561,-0.07877839223994682,-0.0774356624455678,-0.028102310237313644,0.08692995168184606,0.1340187122408743,0.12700719183388413,0.08049293679191727,0.1027476779125417,0.08134505177293938,0.003744728441754472,0.005499345775698363,0.1351800219759537,0.10378884755627017,0.02340834970315899,0.017134419857857107,0.017173399505133914,-0.015456853869753823,-0.020459531902028137,-0.01183650087550879,-0.03629789243572052,-0.02254525276925925,-0.0788532427578099,0.00476695158041836,0.046328830781809677,-0.03185014412855651,-0.060027126137662919,-0.08530876115497048,-0.12166668555847886,0.004541640395895613,0.08673568220987375,0.05421481426848236,0.06556213942194161,0.1402133395443456,0.07371888433836238,0.08902906209975993,0.1543953316254024,0.10578333487764895,-0.035070843998287897,-0.017698504996168035,0.050734897657280109,0.02688519270374704,-0.021010370115972376,0.0290371778199512,0.022901447066061038,0.04118245086203619,-0.011400799785028225,-0.0652063407043962,0.007665825342435359,-0.07832185678561768,-0.0012061365638508352,0.020351146649662569,0.025741398152762549,-0.010913938643978392,-0.04388260288313611,-0.03329441047415879,-0.043225556357372598,0.0250850802219939,0.07631027437803885,0.11448221004377954,0.0215728652987897,-0.07466542112630667,-0.0767695420874813,-0.03520761983465456,0.07303068885626907,-0.015273752941510509,-0.016562897979798608,-0.10357611397254932,-0.054328569965559219,-0.06022384590799806,-0.03563731726171933,0.026083960930551665,-0.011399492597878742,-0.01993145094171765,-0.00802501221499878,-0.04284090980904324,-0.029282141788110853,-0.009530402547148372,-0.05555441577861223,0.005390171292240142,-0.009074415781024352,-0.0788647847044476,-0.022736242074976239,-0.017120868771232736,-0.012623918117408496,0.004637388710363467,0.08045756240266361,0.06738940357889421,-0.05740948883803254,-0.04450308231901463,-0.10353214619154291,-0.048146598180604769,-0.002803519285747497,-0.011698180318989836,0.02965619173859246,-0.08825938979161771,-0.049400299797832298,-0.01939500500377697,0.023278540480941424,0.036683382613183827,-0.01123452033515544,0.014393207481654775,-0.01871467198858605,0.0019644391878241385,-0.05693071179609348,0.009467475915496579,-0.013391518138637348,-0.0048327548831710669,-0.011081985684619166,-0.05044731775325238,-0.044587787349280757,-0.03426070904781061,-0.00037590655164197105,0.02784750223763997,0.10097650897960546,0.006589302399207294,-0.02005347790329865,-0.10221020299830186,-0.1629279785058716,-0.08020163144314907,-0.05719062425152271,-0.031165785072579497,-0.045811807313463,-0.019088475014941494,-0.044245405343147529,-0.038911790292939989,-0.0176563583870991,0.01145249486529798,0.014653502631882785,-0.03387094984631809,-0.013910605453495094,-0.009779464215341866,0.02201053664235126,-0.038805525500748377,-0.042279388499268887,-0.009953444814539137,-0.0040986633618373389,-0.03212888426673247,-0.008873951769922418,-0.014665136808975035,0.02578188072205545,-0.016289775951161105,-0.008444696615418584,0.05332459628807385,-0.030861964393193068,-0.0545480975032325,-0.08334646345672156,-0.14284015996194086,-0.058019577057543018,0.0001474287882502779,0.0186669414388852,0.02754826258611443,-0.017841962208242316,-0.018019037587804489,0.010344762120724266,-0.0033594359260852967,-0.0011187270120232196,0.0035406646216323714,0.06869803168705122,-0.013487612979954213,-0.034026021128330617,0.022764360951551125,0.05591528297425916,-0.05819999007055351,-0.04045580166551218,-0.01499620039299553,-0.026115108008180109,-0.07157559595752991,-0.08779738331092092,-0.025833780640741316,-0.034474530030406628,-0.04504904849774785,0.006479346878195741,-0.034095693943099147,-0.09062731771337838,-0.0075506851451784709,-0.013494458068966637,0.004452262062313963,0.10895768811307687,0.006575980844689013,0.005614854078554105,0.06194023146378321,0.031983823368522078,0.004210011963662191,-0.006639268167273054,-0.020371654978590827,0.03762162161808057,0.004581558271096615,-0.002559328431411589,0.008841692624431052,-0.011785151351430696,0.0005673468253204622,-0.015604914836160718,-0.05039376304137202,-0.021354853379410199,-0.013049839714537328,-0.055525269473134988,-0.054871449672340557,-0.04687025595394863,-0.0019184226178369866,-0.03935344843280942,-0.039670380590399959,-0.04704411816726686,-0.050044444312521068,0.014172933412768875,0.05524088840573261,0.05943227023502614,0.004126725525270853,0.02796130000318444,-0.00032514972210974185,0.009084032603295567,0.02417310274432619,-0.03670161257466446,-0.03334322712603741,0.014544518423103892,0.0057856427412207559,0.043493558014508219,0.030802967078338875,-0.022992372399634976,0.074491631640402,0.050336736881978299,-0.013851856842576342,-0.01128362323004181,-0.05284060850294782,-0.013129622847073473,0.011633923035042645,0.05815278715781187,0.027501298324206764,0.0032591139675799574,-0.03223973477896964,-0.03717219361839936,0.013781226073204069,0.023974456617226745,0.015863699917996633,-0.019249183342410243,-0.0123465110230473,-0.02256694562271863,0.03893440181419532,0.007976078394868212,0.014001866172039003,-0.005371982164355137,-0.0017286942591273479,-0.02270229100383923,0.02401089742014935,-0.035521476786163259,0.03754604196702062,-0.025584748740694785,-0.039495636706024839,-0.023364671439432637,-0.000537416375560705,-0.0018591139318829224,0.012582730353278973,0.019405206911927467,0.10326020765901814,0.13194808500184389,0.025148625712507954,-0.012920990913508724,-0.03731287582413444,-0.07195624222074958,-0.04972576486103699,-0.04545209062634672,-0.0476800198793171,-0.04058994397442866,0.001530074090897031,-0.020931555310120497,0.03626029588452956,-0.02795736430742149,-0.03639111771004668,-0.033799048651117189,-0.06423277119226216,-0.03482283270430698,-0.022435118070630409,0.022396931069421683,0.040927437225947858,-0.02133520787837942,0.002392636668518588,-0.11921719765483166,-0.2188202088615629,-0.16954116457230235,-0.0760200381064567,0.09178930325667421,0.06780035909813435,0.03192971929365024,0.11411697580039078,0.006590946964166374,-0.1305530142322301,-0.19385237575082504,-0.08689595135381477,-0.012581448844862299,-0.014201467560632533,-0.039760955993039828,0.02067809891757403,-0.05625159400315577,0.01601739874678359,-0.0019086579364741383,-0.03476711206288817,0.011067262788993298,0.008556975709907102,0.005071995832561522,0.012835835371120999,0.01818068697908194,0.0010198212521762478,-0.048188257078253197,-0.03551745611457081,-0.005849369016093627,-0.02678543887866161,-0.09390062052482537,-0.029971602232593626,0.031234783052607599,0.10331028570635465,0.014201769501683148,0.03471075224433548,-0.017858407674193737,-0.10480932855268398,-0.025204738965868689,-0.010422225557139217,-0.006958280478484256,0.007181652770368392,0.02324865547734254,-0.004668911312846546,-0.0509082252489113,0.013632289755675202,0.054329845688357709,0.02667192791709209,0.0049701761379307468,-0.005950432646923349,0.05806872504839139,-0.013412479418709373,-0.020787718671761675,-0.14198790711839424,-0.25957706603379557,-0.20967840054037843,-0.09494563073922592,-0.01649383276304768,0.05654947871333188,0.07695735995902643,0.015084968073943012,0.11007103802152424,0.1361656091331276,-0.008381737137161887,0.0518938431461273,0.035155473688076647,0.05899254748599369,-0.005825013046587293,-0.10282432480483925,-0.28388325263207239,-0.22815757239291824,-0.02747534565402459,-0.003318461181072545,0.02548597300540553,0.03132474764948241,0.021950529763495115,-0.017019749954367608,-0.011620505579165275,-0.015808337767491307,0.01301324534340228,-0.13413646188074988,-0.2509463552026518,-0.324041947648258,-0.19828758811521858,0.09253862733494456,0.10086583347454957,0.0744488927752469,0.18888234805297536,0.12436536443746645,0.10848294785617585,0.05055875798003619,0.11378580184959102,0.049839479853313248,0.08651010813879068,0.08161456415164005,0.11705059401274985,0.08353909296363135,-0.2642247345360617,-0.3259352179730085,-0.2023698052517793,-0.05432247421512014,0.019179186214365458,0.005871676809813752,-0.009753507918681352,-0.01173189911653744,-0.002268865318264751,-0.025011856777438024,-0.025666963484593205,-0.07089558478315693,-0.19477739557401284,-0.3691453822003062,-0.11629153125551282,-0.02299643955586635,-0.03870028628611919,0.039483629797105537,0.04963055796909548,-0.021815294471279727,0.08218173383553654,0.09666094353136609,0.006273616847015981,-0.002505449524086684,0.029648262096001435,0.027017498077709324,0.07339638707437209,0.05329843411122272,-0.2993211443953642,-0.2869171347427762,-0.12973946389719419,-0.0885878004498486,-0.004838526026028431,0.00030395664148926305,0.008516192183694595,0.04229491233342663,-0.02582421783832256,0.017210005529025495,-0.07100939372172695,-0.09720336973338496,-0.12339277577926798,-0.38630072595336675,-0.16477700561876658,-0.0903571670517539,-0.01808173361213709,0.05074424875676603,-0.03488562871626727,-0.027633419300184187,-0.007641948566226852,0.08858096975065473,0.03569708613768716,-0.02736399981566737,-0.04060779437767556,0.013784646786069938,0.047113505379827499,-0.05199033834912541,-0.1989261265725934,-0.27322007274425538,-0.1322290716337343,-0.0833247664656319,-0.02009668686637349,0.06739313518730166,0.010188757301006303,0.017823583468904368,-0.009263637864840673,0.015468889252877207,-0.044846785255072869,-0.1064432889735787,-0.1303899431067119,-0.31677493008675458,-0.19269587180117765,-0.13804199112919433,-0.02887397729727284,0.05071838594996443,0.04880858539804163,-0.011425595251863662,0.03218211916951202,0.07528425321517568,0.06414465009903239,0.025720127060771797,-0.017222562068129316,0.04030304583186267,0.04863085324759944,-0.1733963128418868,-0.17529609644043754,-0.15429268942496467,-0.12776926423374036,-0.04804393983805523,-0.019902211903751737,0.010757664051788472,-0.012704638390005198,0.03647057603779906,0.025515942110997736,-0.00279437143930904,0.01648258600079313,-0.07439404613018279,0.051560828254798619,-0.07570449125561907,-0.155952253618505,-0.03944129564854887,-0.06611121508029822,-0.008675896770217868,0.015184245267857669,-0.046255728722638039,0.028247480569719428,0.07509934664842809,-0.00453924452195186,-0.04318561067226358,-0.025654132768757329,0.04774897955274811,-0.04532919703729148,-0.06516027691702292,-0.07974874751673018,-0.06918699893271739,0.0005894669711255656,-0.044096719438207979,0.07114149123048068,0.032782564687021339,-0.009614541341613277,0.05730261082531226,0.08345404316555584,0.030769946227020937,0.03826617897689066,-0.07474830995581718,0.13290124357004419,0.1054334356484649,-0.022149943442080837,-0.050477810984732269,-0.1359870114654735,-0.013160333830951563,-0.038245884189332408,-0.032162140541541418,0.10641169511980814,0.055844480093441669,-0.060296478190981699,0.012301014827374529,-0.02779863302107212,0.0029957840317846064,-0.01261496670220397,-0.056419996408149309,-0.05355882501447707,0.032389662286304448,0.014096075367632303,-0.04403843960985093,-0.014575710665690037,-0.015554405299224098,-0.03610426317492116,0.0301604680085669,0.0024073191061416336,0.03525018167684434,0.013822518298400819,0.007501995765122475,0.23973834925949767,0.25227493004351406,0.09027926062137209,-0.002663997681050705,-0.027313293082629469,-0.04412052179385694,0.030479147762069379,-0.07880629627607606,-0.009847387828172698,-0.10370247314117813,-0.08070531197448187,-0.026834853480550183,-0.10801434357570222,0.03354784471270407,-0.021018386237011908,0.012891210115822505,0.04816933489594216,0.10347602918265006,-0.008840872221455609,-0.11788113251954437,-0.010851357052300516,-0.016756890301274458,-0.039086828374830299,-0.002161440998069588,0.03766199762644444,0.0017463680918946715,-0.06581444474162744,-0.1297208073810648,0.1531077736287138,0.22590259117649784,0.2136438237186178,0.029716037762450407,-0.04179836587830548,-0.03367159379917196,0.04387666219734637,-0.04863622457050307,0.05686109821442411,0.023122914269121023,-0.018026118471448327,-0.023757281001194287,-0.028151916939994464,0.0669753758195625,0.06856180113185126,0.10756679750230415,0.013968360410733034,0.15640606210053416,0.01943414667627837,-0.1432443785082288,0.014798223484179056,-0.028073074536204034,-0.018604456241431229,-0.032885921940401508,-0.08229864900736592,-0.07766581519641555,-0.1309837673028721,-0.1227336959664999,0.04910847301006974,0.17099072670699984,0.22257410098351597,0.10773193902860086,-0.06420480002434426,-0.04369175700593282,0.00387484930590656,0.021741794014889364,0.09962050772358441,0.032033262487307628,0.02156623519215541,0.06320244280452479,-0.06955368264802231,0.06983429465302876,0.17747727707822714,0.16531112126322956,0.03756421919510921,0.16013490328754249,-0.05895560364584953,-0.06372453628342032,-0.019546006392321653,-0.04768559768183782,-0.02387381517635636,-0.02260900164235014,-0.060143884397120778,-0.10846427626470533,-0.1513595841086856,-0.1660575782652165,0.05042031181052923,0.16925540903155593,0.1708179512850146,0.05584485075586938,0.03385750740672923,-0.10794119652721936,-0.030825695315713769,0.03690606352702217,0.026312815829827989,0.023350708053133656,-0.029409664409174503,-0.03249104570952576,-0.07783180104759099,0.020837805400614648,0.18665984731961936,0.21659420434165575,0.12911524428840732,0.07334361282479206,-0.14112751590151835,-0.13203995800327376,-0.02023093507849429,-0.05376686414651994,-0.05316102618404252,-0.017222209124647206,-0.07775675512660044,-0.09292331541169542,-0.16691737914834635,-0.20952000897898144,0.09461106888321792,0.19153725835430739,0.20634305601199738,0.04227865387777111,0.04026382111273996,-0.0575106411282778,-0.031121106054611094,-0.025930220480110387,0.0564346483421284,0.01616390452895023,-0.11143728723704478,-0.03168005816713376,-0.06189681295625279,0.04025594128591442,0.20242856137860644,0.08941919496018472,0.08739988240614617,0.072419091892286,-0.11295145410933441,-0.19057486702223218,-0.08578647800521963,-0.015218586619227145,-0.06903245218036143,0.002940564303164406,-0.03738295991412882,-0.14966338568566935,-0.12970035119641838,-0.12976424022441084,0.0009956903000354918,0.14187431844873578,0.125178476328757,0.12126764611429732,0.0909614103543689,0.029839712025384686,-0.016852194333778604,-0.028513174919761645,0.07956344135467766,0.04086187664591115,-0.11055465992195833,-0.1072022198169631,-0.12530541395993465,0.018346790640645658,0.22616752210722752,0.1881152032016052,0.12506011090449224,0.035632927785938479,-0.18748841697063726,-0.21633009841660118,-0.16975174724574838,-0.09576218839900824,0.009446548533410584,0.03650271554929242,0.04353347713769723,-0.046387625544325686,-0.06702965789691896,-0.12121312482347191,0.011546370300360078,0.08023724262914796,0.1742417566480823,0.11825405224017274,0.014405464462825707,0.028622157041751148,0.04218735054108884,0.04636918178295113,0.023273378676245388,-0.028603067900158358,-0.053032779402275059,-0.09254753560129427,-0.08830857828001698,-0.02308547084250584,0.11773243859813264,0.12037778765078948,0.156108173021265,0.054493375142308928,-0.09776860956567372,-0.11394682224172959,-0.07724427700138192,-0.04919036018107837,0.008281507766228528,0.014154302733029235,0.07177735333432744,-0.09045228412796115,-0.07311098008413873,-0.12121487802864498,0.08638938274145217,0.15111503024273269,0.09068358469480854,0.12144722997259201,0.03172086143905826,-0.0023068588306340137,0.010414125340618384,-0.07856970134025485,0.01916513700079055,0.05966497508280047,-0.005521053363461551,-0.09048450403530692,-0.07340152165098274,-0.08970765213629568,0.12572807508645857,0.1747611898305741,0.15448445583129143,0.047670892109721658,-0.06318905134252435,-0.11515984380457685,0.009173757198689138,-0.02060654642743256,0.01768179136667882,0.006662418615693352,-0.00819769669217117,-0.032511422016297069,-0.05468576221046757,-0.12327332793509717,-0.00862695179883873,0.16201916458870256,0.08965138664033114,0.10242378823043834,-0.010969495323005651,0.03548784933485378,0.11441734034537209,-0.0432538769157678,0.005706703416132458,-0.01810264515112135,-0.13692737469788628,-0.08382013771332223,-0.042003640633588957,-0.052270695093071899,0.013068610201000036,0.11889170435478222,0.18851075959819245,0.02017890591637449,-0.02884693096176173,-0.04070689229591278,0.011548224551185043,-0.05130161691770214,-0.0042301293808274628,-0.020163337956308846,0.021453717067928148,-0.06880676765403623,-0.06702057604597367,-0.13710948626348824,-0.11508721847604324,0.16835061726560514,0.08661092834257725,0.09805987119536167,-0.07533396759352726,0.004748486308299886,-0.00635240159951008,-0.08015038214545495,-0.053542568802865047,0.01312198336206054,-0.010842420271509416,-0.15716916746216207,-0.07871475621046144,-0.10159168968366038,-0.05230330934960413,0.09360654953789469,0.08681907863766139,0.02560329989142245,-0.09112766250346781,-0.00153036045488731,-0.029866566824796233,-0.01781661209633236,0.003769499298795287,-0.006837055962319811,-0.046438967186522999,-0.013941725882753158,-0.05972541868307326,-0.14434172046855854,-0.17608141282679447,0.1378891690617341,0.0053323834033362749,-0.008314666901615132,-0.04548409116054478,-0.05316350237508926,0.0615562881713646,-0.06862888008798932,-0.0059886169975375308,0.0500621078135446,-0.01680226894277956,-0.047806552205301697,-0.11524232998084279,-0.10392748172297083,-0.06788863582539682,0.07861767034912451,0.08449582817829793,0.03303846809090029,-0.11254686762164289,0.0007801628815331625,-0.023574493902608737,-0.014377355482981644,0.0011668241735079207,0.04009338834164372,0.017322530911916439,0.0037859089550056686,-0.04889713963823701,-0.09399518121129352,-0.18020532949341734,0.06303410492173756,-0.08345058263045392,-0.1529768666325447,-0.07149727960135743,-0.09359107414414324,-0.05382654418648304,-0.08956627130247695,0.004953885211348148,-0.000488951947850744,-0.017725086366470089,-0.13797425346105059,-0.3051047047113054,-0.0920643435098894,-0.03136371626334393,0.033508553951011998,0.1291819956901074,-0.0002839227766842685,-0.13398967737527116,0.0005118401161022629,0.0033340543381973608,0.07195159689977879,-0.02247000121619142,0.008128038330931837,-0.006182656465571847,-0.047118511245320949,-0.06453303993657628,-0.07934191170253413,-0.11240683151238974,-0.0019149188822004547,-0.06808802035843184,-0.08597517137507327,-0.009264725109844557,-0.004536729782594589,-0.026839662378761784,-0.037545252500020036,0.07771910373737465,0.0826598806214514,-0.04618549546404372,-0.14652354804406457,-0.2091778879414324,0.03649254532259219,-0.07836708160959584,-0.09552255960782535,0.05646893537582472,0.04149755985245151,-0.08191388981833535,0.004586086524505253,-0.026625790051741817,0.05086630973975361,0.008033675904211708,-0.04366678212314323,-0.02993206099265844,0.05982127816228843,-0.06527417620828687,-0.07783022650550439,-0.20178404286570737,-0.009457799557204059,-0.06652381385369082,-0.12825074944783203,0.08125603839059587,0.02188782993229682,0.061505086880040648,-0.014521629636333239,-0.049322451597960798,0.04446590453381228,-0.02027953027954229,0.0014755249852154065,-0.05321321103266427,0.03305714800250131,-0.0309881867451025,0.0028123909477723565,-0.0029585747809092708,-0.13935659536467577,-0.1442910431003831,-0.03891203502236749,-0.054086058601606989,-0.01749375477617865,0.031109103354581476,-0.014262309818986886,-0.027627908903697285,-0.012279854175289264,-0.01737146076949013,-0.03746017410567836,-0.1652965100898778,-0.029124664616497699,-0.05936064686675089,-0.06372665639528102,-0.0298323145123671,-0.00503093469345921,-0.002362397593349012,-0.0018294424479544194,-0.06301557961458368,-0.062134903235699898,-0.0682734232501297,-0.01494992184979108,-0.0463651728656566,-0.022637558681306539,-0.13934703313282349,-0.029107370394079087,-0.08392788467467892,-0.1847784058128361,-0.1512533458697377,0.03864108525200156,-0.04397438069310972,0.0034236416649534317,-0.004439398442226066,0.007903914831529389,0.002730837322315109,0.012025687778467293,-0.045077440100603449,-0.014548132854559056,-0.13341261779225464,-0.12361869483705972,-0.13629350094874619,-0.07736254002200124,-0.11097662390112166,0.027674166951007774,0.11045323446864093,-0.0009745046516431931,-0.002958095094967781,-0.013041582841649698,0.028064533546434079,0.1182478858041795,0.048480383421123828,-0.06819489637944314,-0.20578761386576339,-0.1788614369873656,-0.1610603379374414,-0.12918934602690985,-0.08691416689621676,0.034891925780513057,0.011067174059790615,0.0000517709099657541,-0.03685259072916493,0.0011886524272648363,0.01400003135242914,-0.008960225105425676,-0.05543194034890892,-0.08337725572900459,-0.10740603805463452,-0.11945931884538319,-0.09104027402384174,-0.08352709230068242,-0.1856492790537433,-0.015723983796187534,0.09858129699874949,0.04327815880969647,0.014281917291906879,0.00013705672738356152,0.05038769181880614,0.1461021617606962,0.06096904170368787,-0.17515252778266458,-0.06999215618667205,-0.16627003802396385,-0.14496311545499974,-0.13671036363417178,-0.053380531787946949,-0.03757352756030348,-0.029522797200999187,-0.0029100743112938619,-0.000186150252187323,0.0344949566854528,-0.009137616195758975,0.03639800635272422,-0.012820857193305575,-0.035871334266222788,-0.04789083391439515,-0.05642603150795868,-0.041953657760543289,-0.14196428245032384,-0.024180634625935273,-0.08588536437986642,0.011238965651832748,-0.03822625673100204,0.05137739992841734,0.11140548442063136,0.021319402543297843,0.0738142567247217,-0.09591950956747936,0.04334429495147241,-0.05346259668635159,-0.13769041881954403,-0.07423270769406608,-0.05728662500871038,-0.052481450759379707,-0.020412550370023674,0.008826891682495179,-0.010004288420968129,0.010932650620840543,-0.03166350340372973,0.004133574415930153,0.005267144394215048,-0.02476830588781706,0.008214990062444743,-0.04091833491647906,-0.05444346619437905,0.0028224163376571137,-0.003380246017299398,0.0834095332262015,-0.10866398775566305,-0.07181057705415933,-0.10399983074847473,-0.04913431991009159,0.04254387221366384,-0.042581929937496407,-0.08130582801886478,-0.044353972666781187,0.044973448087595017,0.08953450581143296,-0.08047616152315877,-0.0552187420064539,-0.04456315903425091,-0.03572815875222875,0.002889637205388286,-0.0013846613534236766,0.03031775240082994,-0.019321797339418229,0.01635057812387232,-0.01642593191975238,-0.033969856031912399,-0.05241524246368377,-0.07121143366873425,-0.005691647335630872,-0.013719862391162658,-0.11580365270565574,-0.08028337318825868,0.11835173503854088,0.018430657194205697,0.03671150344189928,-0.016688733235449336,0.1370727451833843,0.13847232534179394,0.028558694269364909,-0.023932693558447184,0.020714121164785567,0.06623045466350373,-0.043432916204046326,-0.16072779427336579,-0.05260567682521352,0.013397820786231856,0.01694215689895901,0.019668351796109694,-0.006229421357072184,0.016972012293360006,0.00520169077503526,-0.02381864363874428,0.020657345782206149,0.02303493319649804,0.012801115980791422,-0.030908422391405726,0.03323578662945841,0.012970765463888253,-0.004057141651556222,-0.18073073749243616,-0.18450757879758629,-0.15909323344425572,-0.10573201019023999,-0.13814163914367165,0.11480969874178598,0.06454450005247559,0.07254886495456955,0.0292584476925855,-0.04566456996061562,-0.06874683117042534,-0.1943032080494589,-0.09058882262698342,-0.022034461037097436,-0.005706196077861913,-0.032770989867287148,-0.016722899490937423,-0.0260094921776904,-0.015010003633033049,-0.00034868060692030327,0.03469468604923431,-0.01618406202745116,-0.01415961749810869,0.04138002398987306,0.0002983231654828577,-0.006578383141367006,-0.03655106915406636,-0.12826912818131007,-0.21927443913936604,-0.23724469487778464,-0.054912347658371437,0.03396839927353375,0.10194353351720749,0.1912401608688845,0.11556635326857194,0.06562367921278606,0.0519428860761002,0.006962948129273836,-0.12415897261171029,-0.233787616368752,-0.21214484269242968,-0.10832178532743402,-0.012018697356707329,-0.029624867525419757,0.011457137570304655,-0.02534335885165548,0.015136718246882527,-0.0072787339063227298,-0.010279360069649238,-0.05607959366306614,0.04389231311137291,0.0857873876040403,0.169291587146119,-0.06782948932577739,-0.02768858311838443,-0.17594385268738076,-0.3290162804613762,-0.09324060837581076,0.07296973673846664,0.05468602279596551,0.07646816630572626,0.10861915659286753,0.056439612766003639,0.08906484676369873,0.06849830520909953,0.0814579508455225,0.05907009410869096,-0.11533937611210275,-0.2490640909811279,-0.09829750849531889,-0.0844061860890442,0.04474473092921089,0.11609474161133406,0.020279076079324465,-0.0015680266294018652,0.01834347325620556,-0.03809764851081206,-0.014850334370537746,0.016997788321527424,0.012186100696377076,0.04404475184926827,-0.0012255898086075482,-0.01779239217532153,-0.006075991896649141,